
\data\
ngram 1=233
ngram 2=5730
ngram 3=32417

\1-grams:
-1.926151	</f>	-5.172441
-1.926151	</s>
-1.926151	<f>	-2.723208
-99	<s>	-5.172441
-4.993178	DATA	-0.7272198
-7.103768	aam	-0.2874867
-4.362616	adc	-1.324445
-1.512815	add	-2.679044
-5.723557	addpd	-1.397766
-3.417758	addsd	-1.141639
-4.038188	addss	-0.9385126
-2.323905	and	-2.555178
-5.264919	andnpd	-1.130164
-5.848495	andnps	-1.278295
-4.304427	andpd	-0.8768895
-4.973434	andps	-0.9282372
-5.598618	bsf	-0.5796268
-5.64137	bsr	-1.293956
-4.106819	bswap	-1.550291
-4.213347	bt	-2.755602
-1.005202	call	-3.861352
-5.761345	cbw	-0.1758083
-6.103768	cdq	-0.8174442
-3.009437	cdqe	-1.889567
-5.159285	cld	-2.005161
-7.103768	clflush	-0.2874867
-7.103768	cli	-0.07726036
-4.009297	cmova	-1.505075
-4.201221	cmovb	-1.154916
-3.975046	cmovbe	-1.786113
-3.939713	cmovg	-1.041875
-4.146161	cmovge	-1.27143
-4.06674	cmovl	-1.18303
-3.878458	cmovle	-1.365098
-4.083821	cmovnb	-1.1201
-7.103768	cmovnp	-0.3009927
-3.8782	cmovns	-1.301183
-3.122629	cmovnz	-2.28076
-5.927677	cmovp	-0.3410773
-3.930582	cmovs	-1.17851
-2.93377	cmovz	-2.018862
-1.380792	cmp	-3.669277
-6.802738	cmpeqsd	-0.2533477
-6.200678	cmplesd	-0.3705273
-5.95764	cmpltsd	-0.5439379
-6.25867	cmpltss	-0.63398
-5.989824	cmpneqsd	-0.8629447
-6.200678	cmpneqss	-0.9748805
-6.404798	cmpnlesd	-0.7770874
-5.490984	cmpnltsd	-1.374432
-6.25867	cmpnltss	-0.3422916
-2.861972	cmps	-3.390413
-5.031886	cmpxchg	-1.769878
-5.672404	comisd	-0.6217694
-6.062375	comiss	-0.8076385
-4.775388	cpuid	-1.733146
-6.200678	cqo	-0.9541357
-4.364195	cvtpd2ps	-0.6450485
-3.851887	cvtps2pd	-1.057445
-5.297588	cvtsd2ss	-0.808576
-3.180887	cvtsi2sd	-1.517307
-3.807761	cvtsi2ss	-0.9948649
-4.629551	cvtss2sd	-0.8594745
-3.636308	cvttsd2si	-0.7412561
-4.247643	cvttss2si	-0.5339173
-6.062375	cwd	-1.079074
-4.73828	cwde	-0.6063474
-3.531361	dec	-1.599699
-3.68085	div	-1.871421
-3.523299	divsd	-1.435305
-4.216151	divss	-0.7356462
-5.217277	fadd	-1.031102
-6.325616	faddp	-0.3614171
-5.848495	fchs	-0.9962051
-6.626647	fcmovbe	-0.6020476
-6.626647	fcmove	-0.6020476
-6.626647	fcmovne	-0.6020476
-7.103768	fdiv	-0.2840184
-5.848495	fdivp	0.06408949
-5.271259	fild	-1.815158
-5.547465	fistp	-1.568199
-6.802738	fisttp	-0.4635779
-4.593223	fld	-1.143522
-5.848495	fld1	-0.1264922
-5.154378	fldcw	-1.112373
-5.379492	fldz	-0.448939
-5.74204	fmul	-0.2539134
-6.149525	fmulp	-0.3856517
-5.450555	fnstcw	-1.657226
-5.873319	fnstsw	-1.234874
-6.149525	fprem	-0.9999994
-6.802738	frstor	-0.3782132
-5.989824	fst	-0.5258754
-4.541475	fstp	-0.6516021
-7.103768	fsubp	-0.2898142
-5.848495	fsubr	-1.278749
-5.460315	fucomi	-1.732529
-5.240445	fucomip	-0.953806
-6.200678	fxam	-0.9542419
-4.996558	fxch	-0.6817983
-3.950258	hlt	-2.89187
-3.609057	idiv	-1.48402
-2.849341	imul	-2.280897
-6.103768	in	-0.4563685
-3.822053	inc	-1.114734
-6.200678	int	-0.7153895
-2.619881	ja	-2.08407
-2.947613	jb	-1.756976
-2.611133	jbe	-2.181974
-6.062375	jecxz	-0.8528736
-2.662969	jg	-1.996239
-3.06076	jge	-3.02779
-3.073209	jl	-1.692113
-2.447718	jle	-2.493416
-1.415517	jmp	-2.971001
-2.88139	jnb	-2.198791
-5.43167	jnp	-1.654086
-3.25141	jns	-2.167602
-1.593551	jnz	-3.616374
-7.103768	jo	-0.2995156
-3.9112	jp	-1.342171
-2.740927	js	-2.464022
-1.351047	jz	-3.379105
-7.103768	lahf	-0.3009022
-5.672404	ldmxcsr	-1.440922
-1.403816	lea	-2.820624
-2.783372	leave	-3.684458
-6.802738	lfence	-0.2409243
-4.678886	lock	-2.504392
-4.811512	maxsd	-0.4005188
-5.480518	maxss	-1.354188
-4.919076	minsd	-1.056376
-5.65661	minss	-0.2668912
-0.3950745	mov	-3.583382
-3.396283	movapd	-0.9161974
-2.981617	movaps	-1.55413
-6.062375	movd	-0.06979093
-3.659567	movdqa	-1.643501
-4.730856	movdqu	-1.228763
-5.189954	movhpd	-0.6824421
-6.802738	movlpd	-0.4771184
-5.523984	movntdq	-0.9471136
-4.811512	movq	-1.205312
-3.894789	movs	-1.36905
-2.700013	movsd	-1.368805
-3.181873	movss	-1.335021
-2.781445	movsx	-1.511693
-2.146635	movsxd	-1.862696
-1.897701	movzx	-2.314916
-3.988157	mul	-1.764153
-5.501708	mulpd	-1.351949
-3.325327	mulsd	-1.27782
-3.906763	mulss	-0.7879701
-3.495242	neg	-1.749529
-2.211111	nop	-2.325722
-3.182602	not	-1.29146
-2.470471	or	-2.205127
-5.16927	orpd	-0.9333204
-5.761345	orps	-0.4774955
-5.470299	out	-1.281448
-4.523984	paddd	-2.329697
-4.723557	palignr	-2.36428
-5.396198	pand	-1.689834
-7.103768	pandn	-0.3010298
-4.75352	pcmpeqb	-2.32641
-7.103768	pcmpeqd	-0.3010282
-6.325616	pcmpistri	-0.301908
-7.103768	pinsrb	-0.3010298
-4.996558	pmovmskb	-1.860167
-1.670936	pop	-3.318645
-6.501708	por	-0.6988747
-6.325616	prefetchnta	-0.5281153
-6.25867	prefetcht0	-0.4244086
-6.325616	pshufd	-0.8456624
-6.802738	pslld	-0.3917563
-5.927677	pslldq	-1.204112
-6.802738	psrld	-0.4771194
-4.846089	psrldq	-2.002449
-5.413572	psubb	-1.698966
-5.396198	ptest	-1.715432
-4.644375	punpckhbw	-2.46079
-4.51718	punpckhwd	-2.336512
-4.510482	punpcklbw	-2.042206
-7.103768	punpcklqdq	-0.07726036
-4.341089	punpcklwd	-2.12538
-1.756009	push	-2.919747
-5.020982	pxor	-1.244406
-6.626647	rdtsc	-0.3347779
-7.103768	retf	-0.3009022
-1.899328	retn	-2.214781
-4.182602	rol	-1.65956
-3.219652	ror	-1.810103
-2.705619	sar	-1.984794
-3.287394	sbb	-1.846024
-3.769113	scas	-2.974261
-7.103768	setalc	-0.3009022
-3.714957	setb	-2.392749
-4.427074	setbe	-1.215083
-4.685467	setl	-0.561802
-4.380312	setle	-1.058965
-4.853348	setnb	-1.539566
-3.670799	setnbe	-1.838194
-4.86073	setnl	-0.6568825
-3.907039	setnle	-2.498935
-5.74204	setnp	-1.36407
-2.940845	setnz	-2.220325
-5.371374	setp	-1.208728
-6.404798	sets	-0.4624014
-2.984413	setz	-2.036374
-6.626647	sfence	-0.5410925
-2.458306	shl	-2.795853
-6.024587	shld	-0.9433849
-2.667319	shr	-2.315389
-6.325616	shrd	-0.6082093
-5.020982	sqrtsd	-1.584894
-5.989824	sqrtss	-0.4703583
-7.103768	std	-0.2835443
-5.672404	stmxcsr	-1.440135
-3.479383	stos	-1.586892
-1.773374	sub	-2.544034
-3.697909	subsd	-1.020301
-4.263035	subss	-1.40264
-6.802738	syscall	-0.2375577
-1.338341	test	-4.081173
-3.486034	ucomisd	-2.011991
-4.066341	ucomiss	-1.440681
-4.405667	unpcklpd	-1.497781
-4.063561	unpcklps	-1.256624
-4.140452	xadd	-2.202483
-3.236536	xchg	-1.499141
-1.363733	xor	-2.876325
-3.770321	xorpd	-0.7757223
-4.117444	xorps	-0.2997549

\2-grams:
-2.885131e-06	</f> </s>
-3.835195	<f> DATA	-0.894591
-2.598978	<f> add	-0.9697762
-5.102608	<f> addsd
-3.080707	<f> and	-0.9129692
-5.102608	<f> bswap	-0.2918564
-3.243119	<f> call	-0.350701
-5.177617	<f> cli
-1.671654	<f> cmp	-1.141536
-3.646138	<f> cvtsi2sd	-0.4982759
-4.784057	<f> cvtsi2ss	-0.3629915
-4.595492	<f> cvttsd2si	0.005421579
-4.700496	<f> cvttss2si
-5.177617	<f> dec
-5.102608	<f> divsd	-0.2829561
-5.102608	<f> divss	-0.2019642
-3.746253	<f> imul	-0.5368478
-5.177617	<f> int
-5.102608	<f> jg	-0.1127741
-2.00971	<f> jmp	-1.636124
-5.177617	<f> jnz
-5.177617	<f> jz
-1.960133	<f> lea	-1.341881
-4.700496	<f> maxsd	-0.3742619
-0.489153	<f> mov	-2.479149
-3.947168	<f> movapd	-0.2700951
-3.181982	<f> movaps	-1.303245
-4.830874	<f> movdqa	-0.7364349
-5.102608	<f> movdqu	-0.3158014
-4.136225	<f> movq	-0.2946822
-3.173296	<f> movsd	-0.6411954
-3.835195	<f> movss	-0.05097702
-3.031489	<f> movsx	-0.8653375
-2.665734	<f> movsxd	-0.8046004
-2.112785	<f> movzx	-1.231394
-4.223375	<f> mulsd	-0.5615459
-5.177617	<f> neg
-5.102608	<f> not
-3.621315	<f> or	-1.117687
-4.830874	<f> pop	-0.1651215
-0.3324882	<f> push	-1.453126
-1.818921	<f> retn	-2.792887
-4.595492	<f> sar	-0.3105464
-5.177617	<f> setz
-4.700496	<f> shl
-3.797406	<f> shr	-0.4685262
-3.762644	<f> stmxcsr	-0.2852356
-1.045422	<f> sub	-2.03765
-5.177617	<f> subsd
-1.658446	<f> test	-0.9710729
-3.876587	<f> ucomisd	-0.4926361
-5.177617	<f> ucomiss
-4.700496	<f> unpcklps	-0.1825065
-1.63417	<f> xor	-1.68519
-3.898864	<f> xorpd	-0.5263038
-5.102608	<f> xorps
-2.885131e-06	<s> <f>	-0.1621733
-0.6956164	DATA </f>	3.746256
-0.3397377	DATA DATA	-0.09904081
-2.11059	DATA adc
-1.41162	DATA add	0.01785534
-2.11059	DATA and
-2.03558	DATA call
-2.03558	DATA cmp
-2.03558	DATA frstor	0.07376242
-1.2075	DATA jmp	-0.4444367
-1.763846	DATA lea	-0.2275115
-0.9966463	DATA mov	0.08732811
-2.03558	DATA movzx
-2.11059	DATA push
-2.11059	DATA sub
-2.03558	DATA xor
-0.30103	aam add
-1.838062	adc adc	-0.3474109
-0.6880732	adc add	-0.8865169
-2.347591	adc and	-0.271203
-1.26403	adc call	-0.6659999
-1.025148	adc cmp	0.1263947
-2.741152	adc imul
-0.8660904	adc jmp	-0.5067445
-2.741152	adc lahf
-1.537032	adc lea	-0.4063913
-0.7158457	adc mov	0.02458191
-2.26403	adc movsxd	-0.5774617
-1.485879	adc neg	-0.6963409
-2.394408	adc nop	0.1135325
-2.741152	adc not
-2.26403	adc or	-0.5878567
-1.595024	adc retn	-0.8450248
-2.26403	adc shr	-0.5718787
-1.36094	adc sub	-0.7865169
-0.9487599	adc test	0.1569244
-2.741152	adc xchg
-1.741152	adc xor	-0.43893
-5.515944	add </f>	4.859626
-5.590953	add DATA
-5.590953	add aam
-3.693326	add adc	-0.4485531
-1.1237	add add	-0.9596603
-3.636711	add addsd	-0.5045577
-4.17598	add addss	-0.1754757
-2.122163	add and	-1.150144
-5.24421	add andpd	0.178862
-5.590953	add andps
-5.515944	add bsf	-0.06811658
-4.085803	add bswap	-0.2732985
-5.515944	add bt
-1.317396	add call	-0.9440958
-5.515944	add cdq	0.4223686
-2.57896	add cdqe	-0.2778658
-3.937741	add cmovb	-1.437669
-4.335681	add cmovnb	-0.8630332
-3.392296	add cmovns	-0.4970152
-4.891983	add cmovnz	-0.2111498
-3.287757	add cmovs	-0.3012519
-5.197393	add cmovz	-0.04889566
-0.9182367	add cmp	-0.7679281
-3.835078	add cmps	-0.4016966
-5.515944	add cpuid
-4.687863	add cvtpd2ps	-0.06222093
-4.072439	add cvtps2pd	-0.3364957
-5.590953	add cvtsd2ss
-3.340533	add cvtsi2sd	0.08078063
-3.883383	add cvtsi2ss	-0.01374304
-4.046885	add cvttsd2si	-0.3961629
-4.687863	add cvttss2si	-0.05971816
-5.197393	add cwde	-0.1741188
-4.268734	add dec	-0.5348204
-3.305396	add div	-0.3999335
-3.842765	add divsd	-0.4096989
-4.360504	add divss	-0.5872759
-5.515944	add fchs	-0.2883273
-5.515944	add fisttp
-4.687863	add fld	-0.3837894
-5.590953	add fld1
-5.113832	add fldz	-0.1746405
-4.687863	add fstp	-0.3184148
-4.229226	add idiv	-0.0769724
-2.575175	add imul	-0.274563
-5.590953	add in
-4.3122	add inc	0.4033935
-5.590953	add int
-3.497532	add jb	-0.3770012
-3.988893	add jg	-0.8283683
-4.360504	add jle	-0.1244963
-1.024987	add jmp	-0.8337562
-3.470379	add jnb	-1.212143
-3.745855	add jns	-0.4094135
-2.969777	add jnz	-0.4072016
-3.113832	add js	-0.3488165
-2.670308	add jz	-0.5260305
-1.58376	add lea	-1.142997
-2.886803	add leave	-1.249155
-4.891983	add maxsd	-0.3912413
-0.6205552	add mov	-1.507041
-3.858559	add movapd	0.02936
-4.414862	add movaps	0.3935509
-5.515944	add movd	-0.2683355
-3.608682	add movdqa	-1.434877
-4.414862	add movhpd	-0.8643374
-5.590953	add movq
-4.289923	add movs	-0.05758721
-3.087162	add movsd	-0.1638128
-3.438665	add movss	-0.1421102
-2.658479	add movsx	-0.5731602
-1.894247	add movsxd	-0.8779373
-1.514386	add movzx	-1.440623
-4.022751	add mul	-0.5414375
-5.197393	add mulpd	0.229984
-3.582353	add mulsd	-0.1041279
-3.967704	add mulss	-0.471728
-3.307652	add neg	-0.3261499
-2.586632	add nop	-0.8894843
-3.172652	add not	-0.9452624
-2.398107	add or	-1.126792
-0.9578283	add pop	-0.7580419
-3.47701	add push	-0.4338107
-5.590953	add pxor
-0.9123985	add retn	-1.100645
-3.721721	add rol	-1.075534
-2.77604	add ror	-1.333557
-2.363324	add sar	-0.3921521
-2.547591	add sbb	-1.982199
-3.988893	add scas	-0.698769
-5.590953	add setalc
-3.999889	add setnz	-0.8087884
-5.113832	add setz	-0.5372799
-5.515944	add sfence	-0.0989044
-2.131711	add shl	-0.623502
-2.636711	add shr	-0.08739817
-5.590953	add sqrtsd
-4.444825	add stos	-0.5073937
-1.794448	add sub	-0.548907
-4.229226	add subsd	-0.2212341
-5.008828	add subss	-0.04853921
-1.553606	add test	-0.8204072
-4.159589	add ucomisd	-0.01828939
-4.891983	add ucomiss
-5.197393	add unpcklpd	0.2338431
-4.511772	add unpcklps	-0.1840674
-3.666674	add xchg	-0.50995
-1.672346	add xor	-1.263606
-4.072439	add xorpd	-0.2816937
-4.891983	add xorps	-0.3956933
-0.01772877	addpd movapd	-0.9845374
-1.937822	addsd add	-0.3203469
-1.128503	addsd addsd	-0.4952664
-3.68601	addsd addss
-2.98704	addsd andpd
-1.216188	addsd call	-0.6182262
-3.68601	addsd cdqe
-3.68601	addsd cmovle
-3.208889	addsd cmovz	-0.04326746
-2.194649	addsd cmp	-0.6195037
-3.68601	addsd cvtpd2ps
-2.223612	addsd cvtps2pd	-0.7106276
-3.208889	addsd cvtsd2ss
-1.530674	addsd cvtsi2sd	-0.5374405
-2.731768	addsd cvtsi2ss	-0.2524461
-3.339267	addsd cvtss2sd	-0.004608721
-0.9496138	addsd cvttsd2si	-0.3120399
-1.54929	addsd divsd	-0.7132411
-3.208889	addsd divss	-0.5582981
-3.339267	addsd ja	-0.08442977
-3.68601	addsd jbe
-3.103885	addsd jg	-0.123371
-2.731768	addsd jge	0.2736577
-3.68601	addsd jl
-2.98704	addsd jle	0.0451171
-0.6196843	addsd jmp	-0.5795906
-3.611001	addsd jnb	-0.3179362
-1.97844	addsd jns	-1.457055
-2.062761	addsd jnz	0.03960776
-2.539882	addsd js	-1.153417
-2.407257	addsd jz	0.1922742
-2.430738	addsd lea	-0.02525717
-3.208889	addsd maxsd	-0.1789717
-3.339267	addsd minsd	-0.5857245
-1.421193	addsd mov	-0.5354926
-1.450482	addsd movapd	-0.3833738
-3.29245	addsd movaps	-0.5519708
-3.208889	addsd movq	-0.3184041
-0.8017815	addsd movsd	-0.4709141
-2.073226	addsd movss	-0.6525784
-3.611001	addsd movsx	-0.2772501
-3.208889	addsd movsxd	-0.1258468
-3.103885	addsd movzx	-0.2482717
-1.416497	addsd mulsd	-0.6745579
-3.68601	addsd mulss
-3.68601	addsd neg
-3.29245	addsd nop	-0.3430492
-3.68601	addsd orpd
-3.68601	addsd pop
-3.611001	addsd push	-0.04071602
-1.995814	addsd retn	-0.6603714
-3.68601	addsd sar
-3.68601	addsd shr
-2.644618	addsd sqrtsd	0.0913057
-2.98704	addsd sub	-0.1006101
-1.640687	addsd subsd	-0.5153002
-2.407257	addsd test	-0.2436312
-1.351557	addsd ucomisd	-0.6478007
-2.013912	addsd unpcklpd	-0.6404078
-3.611001	addsd unpcklps	-0.304729
-2.731768	addsd xor	-0.3604434
-2.254647	addsd xorpd	-0.607478
-1.521512	addss add	-0.7602662
-1.069945	addss addss	-0.5097586
-2.16249	addss call	-0.03144932
-2.588459	addss cmp	-0.5003736
-2.588459	addss cvtps2pd	-0.1837604
-2.588459	addss cvtsi2sd
-1.402822	addss cvtsi2ss	-0.33402
-1.74336	addss cvtss2sd	-0.7305716
-1.196348	addss cvttss2si	-0.5305193
-1.835131	addss divss	-0.4020068
-3.06558	addss imul
-2.718836	addss jb	-0.7252313
-3.06558	addss jbe
-1.986398	addss jg	-0.2934162
-3.06558	addss jge
-2.99057	addss jle	-0.3173608
-0.9225649	addss jmp	-0.3577547
-2.99057	addss jns	-0.06747887
-1.474515	addss jnz	-0.2146083
-3.06558	addss js
-2.672019	addss jz	-0.05963045
-2.36661	addss lea	0.1687507
-3.06558	addss minss
-1.04439	addss mov	-0.3670586
-3.06558	addss movapd
-1.74336	addss movaps	0.08170193
-2.588459	addss movq	-0.4829902
-1.986398	addss movsd	-0.1748025
-0.5604298	addss movss	-0.3498291
-2.99057	addss movsx	-0.2772501
-3.06558	addss movsxd
-3.06558	addss movzx
-3.06558	addss mulsd
-1.412367	addss mulss	-0.4979394
-3.06558	addss pop
-2.06558	addss retn	-0.1446212
-3.06558	addss sar
-3.06558	addss setnbe
-2.483455	addss sqrtss	-0.02808918
-2.99057	addss sub	-0.3178296
-2.588459	addss subsd	-0.1795153
-2.483455	addss subss	-0.01702534
-2.588459	addss test
-1.521512	addss ucomiss	-0.2871105
-3.06558	addss unpcklpd
-1.35801	addss unpcklps	-0.9885476
-2.672019	addss xorps	-0.4625122
-1.193389	and add	-0.6321048
-1.092156	and and	-0.9496881
-3.603772	and bswap	-0.9260709
-3.055588	and bt	0.8569984
-1.513396	and call	-0.6802878
-2.606677	and cdqe	-0.676554
-2.726785	and cmovnz	-0.4885914
-2.830473	and cmovz	-0.6328114
-0.8132992	and cmp	-0.9330642
-3.332705	and cmps	-0.7568222
-4.779863	and cmpxchg
-4.704854	and cvtsd2ss
-3.66592	and cvtsi2sd	-0.3781552
-4.302742	and cvtsi2ss	-0.1842293
-4.779863	and dec
-4.43312	and div	-0.07271557
-4.704854	and idiv	-0.2847816
-3.016435	and imul	-0.2756175
-4.197739	and inc	-0.05046464
-4.080894	and jle	0.06398486
-1.587296	and jmp	-0.7288665
-1.528712	and jnz	-0.7338846
-3.524591	and js	-1.122482
-1.170269	and jz	-1.091757
-1.542068	and lea	-0.6203457
-3.549414	and leave	-0.101307
-0.7335243	and mov	-0.9979942
-4.43312	and movapd	-0.1303308
-4.704854	and movs
-3.549414	and movsd	-0.5218754
-2.485397	and movsx	-0.812884
-2.238284	and movsxd	-0.6343158
-1.809052	and movzx	-0.5554817
-4.779863	and mulsd
-2.953789	and neg	-0.8716711
-2.581206	and nop	-0.6394299
-2.633735	and not	-0.7764245
-1.131601	and or	-1.365471
-4.779863	and out
-2.679493	and pop	0.2877332
-1.582583	and push	-1.298025
-2.087016	and retn	-0.2996809
-2.987472	and rol	-1.671378
-2.167079	and ror	-1.210136
-2.308572	and sar	-0.7182809
-3.524591	and setnz	-0.7434367
-3.876773	and setz	0.04037291
-1.516938	and shl	-0.8854659
-1.390343	and shr	-0.82007
-3.66592	and stos	-0.5481072
-1.402375	and sub	-0.612352
-1.472581	and test	-1.042812
-4.302742	and ucomisd	-0.1839665
-3.575743	and xchg	-0.3974593
-1.599164	and xor	-0.9710296
-4.302742	and xorpd	-0.5992294
-1.838849	andnpd addsd
-1.838849	andnpd and
-1.76384	andnpd andpd	-0.3011261
-0.8846066	andnpd movapd	-0.9987205
-1.256724	andnpd movsd	-0.4005283
-1.838849	andnpd movsxd
-0.1856366	andnpd orpd	0.2099673
-1.838849	andnpd test
-1.76384	andnpd xorpd	-0.3161765
-1.278754	andnps andps
-0.5797836	andnps movaps	-0.9642922
-0.1995724	andnps orps	0.05064075
-2.322219	andpd add
-1.595221	andpd addsd	-0.495593
-2.79934	andpd and
-1.035913	andpd andnpd	-0.4236723
-1.685397	andpd andpd	0.01232854
-2.452597	andpd call	-0.2797467
-2.322219	andpd cmp	-0.41404
-2.724331	andpd cmpltsd	-0.1261085
-1.685397	andpd cmpnltsd	-0.4788423
-2.322219	andpd comisd	-0.1427372
-2.100371	andpd cvtsi2sd	-0.3459893
-2.79934	andpd cvttsd2si
-1.799341	andpd divsd	-0.1900567
-2.724331	andpd jg	-0.1127741
-1.845098	andpd jmp	0.1146053
-2.322219	andpd jnz	-0.1838931
-2.724331	andpd jz
-1.896251	andpd lea	-0.3537427
-1.845098	andpd maxsd	-0.2132824
-2.79934	andpd minsd
-1.720159	andpd mov	0.05174936
-1.419129	andpd movapd	-0.3154972
-0.9360177	andpd movsd	-0.2242967
-2.79934	andpd movss
-2.79934	andpd movsxd
-1.845098	andpd mulsd	-0.1989209
-2.217216	andpd orpd	-0.7009853
-2.79934	andpd pop
-2.79934	andpd setnbe
-2.79934	andpd sqrtsd
-2.217216	andpd subsd	-0.2550535
-2.79934	andpd test
-0.2928355	andpd ucomisd	-0.8154089
-2.79934	andpd xor
-2.452597	andpd xorpd	-0.6002424
-2.055324	andps add	-0.2621234
-1.431364	andps addss	-0.2581879
-0.9542425	andps andnps	-0.4638541
-1.176091	andps andps	-0.06915918
-2.130334	andps cmp
-2.130334	andps cmpltss
-1.431364	andps cvtps2pd	-0.9546189
-2.130334	andps cvtsi2ss
-2.130334	andps cvtss2sd
-1.227244	andps divss	-0.2092135
-2.130334	andps jg
-2.130334	andps jmp
-2.130334	andps jz
-2.055324	andps mov
-1.78359	andps movaps
-1.653213	andps movsd	-0.1838386
-1.130334	andps movss	-0.03821257
-2.130334	andps mulsd
-1.736773	andps mulss	-0.3377337
-1.653213	andps orps	-0.1016487
-2.130334	andps sqrtss
-1.088941	andps ucomiss	-0.1673709
-2.130334	andps unpcklpd
-0.5070845	andps unpcklps	-0.9659103
-1.50515	bsf add
-1.50515	bsf bsf
-1.028029	bsf cmovnz
-0.9230251	bsf cmovz	-0.08579093
-1.028029	bsf cmp	-0.1839477
-0.3590219	bsf mov	-0.5546902
-1.50515	bsf shl
-1.43014	bsf test
-0.2863067	bsr mov	-0.5425736
-1.387389	bsr shl
-0.3832167	bsr xor	-0.1563682
-2.093859	bswap add	-0.3854061
-1.996949	bswap and	-0.9275194
-1.233521	bswap bswap	0.2156482
-1.599009	bswap call	-0.352758
-1.110458	bswap cmp	-0.8211036
-2.996949	bswap divsd
-2.996949	bswap imul
-1.289379	bswap jmp	-0.5752546
-2.996949	bswap jnz
-1.440647	bswap lea	-0.3161642
-0.2456701	bswap mov	-0.7577275
-2.996949	bswap movzx
-2.92194	bswap nop	-0.298216
-2.093859	bswap push	-0.6769645
-2.603389	bswap retn	-0.359916
-1.955557	bswap rol	-0.9188773
-2.093859	bswap ror	-0.728499
-1.599009	bswap shl	-1.315771
-2.297979	bswap shr	-0.2134421
-1.996949	bswap sub	-0.1557142
-1.343737	bswap test	0.4810099
-1.394889	bswap xor	-1.292704
-0.6548926	bt jb	-0.2966394
-0.1101037	bt jnb	-0.6651891
-2.815412	bt mov	-0.3178887
-1.844187	call </f>	0.9232168
-6.098566	call DATA
-1.628729	call add	-1.583444
-4.554498	call addsd	-0.9029894
-5.057174	call addss	-0.9869193
-3.117201	call and	-1.275593
-5.621445	call andpd
-6.098566	call bsf
-5.195476	call bswap	-0.5385981
-6.023557	call bt
-1.831888	call call	-0.7084541
-5.751823	call cbw	-0.5488154
-3.24426	call cdqe	-0.8921038
-1.313265	call cmp	-1.094976
-4.667202	call cvtsd2ss	-0.3415491
-3.225246	call cvtsi2sd	-0.2587677
-4.089966	call cvtsi2ss	-0.6473104
-4.819813	call cvtss2sd	-0.3846133
-3.720168	call cvttsd2si	-0.9358299
-4.530365	call cvttss2si	-0.3785938
-4.475317	call cwde	-0.6631725
-4.952438	call dec	0.995926
-4.683593	call divsd	-0.1773575
-5.195476	call fld	-0.08025064
-6.098566	call fstp
-2.946584	call hlt	-0.6974435
-3.705869	call imul	-0.8714296
-4.518783	call inc	-0.8195507
-6.098566	call jge
-5.098566	call jl	-0.7493083
-1.070166	call jmp	-1.63819
-5.144324	call jnz	-0.4482947
-5.144324	call jp	-0.1955757
-5.516441	call jz	-0.113309
-1.336729	call lea	-2.430599
-2.474904	call leave	-2.168667
-0.2807411	call mov	-3.426775
-4.154084	call movapd	-0.5231227
-5.019385	call movaps	-0.4883846
-5.195476	call movdqa	-0.6797015
-4.593416	call movq	-1.096307
-5.399596	call movs	-0.9579659
-2.604969	call movsd	-1.272415
-3.277708	call movss	-0.6982403
-2.867607	call movsx	-1.378796
-2.296683	call movsxd	-1.011144
-2.050902	call movzx	-1.801339
-6.023557	call mul	-0.06272155
-3.840888	call mulsd	-0.9380082
-5.098566	call mulss	-0.3050043
-4.530365	call neg	-0.6405548
-2.053791	call nop	-1.523753
-4.125438	call not	-0.4929771
-2.713318	call or	-1.507596
-2.700626	call pop	-0.9400315
-3.246086	call push	-0.6163226
-5.399596	call retn	-0.153186
-5.751823	call ror	-0.599158
-4.350378	call sar	-0.5301127
-3.62435	call shl	-0.8262516
-3.928304	call shr	-0.8817716
-5.621445	call stos	-0.5883349
-2.649396	call sub	-0.9469194
-3.94323	call subsd	-1.190833
-5.399596	call subss	-0.09414045
-0.7908477	call test	-1.552231
-4.094245	call ucomisd	-0.1387035
-5.057174	call ucomiss	-0.07927105
-4.272491	call unpcklpd	-0.3374699
-4.621445	call unpcklps	-0.152197
-3.109116	call xchg	-1.652962
-1.41718	call xor	-2.281409
-3.473254	call xorpd	-1.492567
-3.335138	call xorps	-0.9482857
-0.9956793	cbw add	-0.7111512
-1.267413	cbw jmp	-0.3178026
-1.267413	cbw lea
-0.4393327	cbw mov	-0.1851353
-0.9488623	cbw sub	-0.3365257
-0.08715018	cdq idiv	-0.2981985
-1.041393	cdq mov
-1.080652	cdqe add	-0.6969428
-4.019322	cdqe addss	-0.31755
-2.170052	cdqe and	-0.7573614
-4.094331	cdqe call
-4.094331	cdqe cmovnb
-3.191241	cdqe cmovns	-0.7736064
-3.61721	cdqe cmovnz	-0.4152699
-2.679358	cdqe cmovs	-1.318119
-3.191241	cdqe cmovz	-0.953449
-1.239418	cdqe cmp	-0.2705436
-4.094331	cdqe cvtpd2ps
-2.980388	cdqe cvtsi2sd	-0.6082634
-4.094331	cdqe cvtsi2ss
-3.61721	cdqe div	0.04252785
-2.21927	cdqe imul	-0.6954381
-4.094331	cdqe inc
-3.747588	cdqe jg	-0.7308387
-3.395361	cdqe jle	-0.185422
-1.890211	cdqe jmp	-0.03076684
-3.140089	cdqe jnz	-0.5258661
-2.890211	cdqe jz	-0.3796062
-0.8610814	cdqe lea	-0.6057813
-0.3095714	cdqe mov	-1.223229
-4.094331	cdqe movaps
-2.550263	cdqe movsd	-0.3374762
-3.052939	cdqe movss	-0.1800513
-2.060908	cdqe movsx	-0.06020737
-1.585129	cdqe movsxd	-0.84475
-1.233395	cdqe movzx	-0.3689927
-2.980388	cdqe neg	-0.3457784
-4.019322	cdqe nop
-3.700771	cdqe not	-0.2694111
-2.338456	cdqe or	-0.2654746
-2.890211	cdqe pop	0.3554621
-3.747588	cdqe push	-0.1265731
-2.679358	cdqe retn	-0.8473622
-3.140089	cdqe sar	-0.2415681
-4.094331	cdqe setnz
-2.732604	cdqe setz	-1.002321
-1.387614	cdqe shl	-1.437588
-2.863883	cdqe shr	-0.6414185
-1.692931	cdqe sub	-0.6965798
-4.094331	cdqe subsd
-1.856285	cdqe test	-0.5615333
-4.019322	cdqe ucomisd
-1.951317	cdqe xor	-0.9014199
-1.944483	cld jnz
-1.944483	cld pop
-1.944483	cld push
-1.869473	cld shr	-0.3178669
-0.02540458	cld stos	-1.282358
-0.30103	clflush add
-0.30103	cli mov
-1.011686	cmova add	-0.6869534
-2.747728	cmova and	-0.5133755
-1.331043	cmova call	0.09302664
-2.61735	cmova cmova
-0.9154942	cmova cmp	-0.6873667
-3.094471	cmova cvtsi2sd
-3.094471	cmova cvttsd2si
-1.61735	cmova imul	-0.7891381
-1.049148	cmova jmp	-0.5680538
-0.9609322	cmova lea	-0.6494918
-0.592044	cmova mov	-0.3282106
-3.094471	cmova movsd
-3.094471	cmova movsx
-2.140229	cmova movsxd	-0.09579006
-3.019462	cmova movzx
-1.815718	cmova nop	-0.3171006
-1.323619	cmova pop	-0.9209976
-3.094471	cmova push
-1.815718	cmova retn	-0.6336638
-2.512346	cmova shl	-0.02419025
-1.948343	cmova shr	-0.7902182
-1.362077	cmova sub	-0.4767965
-1.225239	cmova test	-0.113608
-1.404275	cmova xor	-0.3552613
-0.7626677	cmovb add	-0.6702246
-1.823366	cmovb and	-0.1229622
-1.259094	cmovb call	-0.7039646
-2.902547	cmovb cdqe
-2.425426	cmovb cmovb	-0.4769401
-0.6215134	cmovb cmp	-0.5777479
-2.320422	cmovb cmps	-0.8713186
-1.239789	cmovb jmp	-0.03975075
-1.440149	cmovb lea	-0.3205347
-0.6015168	cmovb mov	-0.4635572
-2.425426	cmovb movsxd	-0.165662
-2.203577	cmovb movzx	0.0256049
-2.902547	cmovb mul
-2.827537	cmovb nop	-0.07394139
-1.788603	cmovb or	-0.2533695
-2.902547	cmovb pop
-2.425426	cmovb retn
-1.487573	cmovb shl	-0.7628934
-2.508986	cmovb shr	-0.4085309
-2.555803	cmovb sub	-0.5986063
-1.221305	cmovb test	-0.5178141
-1.698427	cmovb xor	0.1984776
-1.17448	cmovbe add	-0.7039723
-3.128722	cmovbe and
-1.584654	cmovbe call	-0.4573095
-2.014779	cmovbe cmovnb	-0.5769667
-0.6693298	cmovbe cmp	-1.117328
-3.053713	cmovbe imul
-1.495254	cmovbe jmp	0.1490027
-1.57242	cmovbe lea	-0.06073201
-0.4323659	cmovbe mov	-0.871645
-3.128722	cmovbe movs
-1.766994	cmovbe movsx	-1.280032
-1.952631	cmovbe movsxd	-0.3414603
-1.713749	cmovbe movzx	-0.8292093
-3.053713	cmovbe nop
-3.128722	cmovbe or
-2.17448	cmovbe pop	-0.2610118
-2.225632	cmovbe push	-0.6769645
-1.623572	cmovbe retn	-0.3029791
-2.225632	cmovbe shl	-0.8303374
-2.225632	cmovbe shr	-0.2165758
-1.515938	cmovbe sub	-0.2059644
-1.17448	cmovbe test	-0.2699119
-3.053713	cmovbe ucomisd	-0.1883875
-1.27139	cmovbe xor	-0.4808478
-3.053713	cmovbe xorps	-0.3157473
-1.053466	cmovg add	-0.5800381
-2.817312	cmovg and	-0.05803958
-1.357875	cmovg call	-0.2606784
-2.465085	cmovg cdqe	-0.3460424
-3.089046	cmovg cmovg
-0.845992	cmovg cmp	-0.3995156
-3.164055	cmovg cvtps2pd
-2.817312	cmovg cvtsi2sd
-2.817312	cmovg cvttsd2si	-0.2919149
-2.164055	cmovg imul	-0.2009479
-3.164055	cmovg inc
-1.423693	cmovg jmp	-0.3278172
-1.448052	cmovg lea	-0.02384001
-0.5003543	cmovg mov	-0.4842292
-2.465085	cmovg movapd	-0.460353
-2.817312	cmovg movsd	-0.7396595
-2.817312	cmovg movsx	-0.7170111
-1.177284	cmovg movsxd	-0.8408181
-1.987964	cmovg movzx	-0.3474656
-2.817312	cmovg neg	-0.5741169
-3.089046	cmovg nop	-0.07394139
-2.770495	cmovg or	-0.1067658
-2.465085	cmovg pop	-0.3441945
-1.885302	cmovg retn	-0.205482
-2.817312	cmovg sar	-0.1145149
-2.817312	cmovg shl
-3.089046	cmovg shr
-1.540806	cmovg sub	-0.1928796
-3.089046	cmovg subsd	-0.3155994
-1.110977	cmovg test	-0.0281117
-1.046784	cmovg xor	-0.4509427
-1.131532	cmovge add	-0.2117281
-2.610864	cmovge and	-0.2736019
-1.426128	cmovge call	-0.3778791
-2.375482	cmovge cmovge	-0.3334564
-2.258637	cmovge cmovle	-0.2128041
-0.7992448	cmovge cmp	-0.7655728
-2.957607	cmovge cvtsi2sd
-1.957607	cmovge imul	-0.09072223
-1.314155	cmovge jmp	-0.3052285
-1.285509	cmovge lea	-0.2786504
-0.4073789	cmovge mov	-0.5083778
-2.882598	cmovge movsd
-2.882598	cmovge movsx
-1.201732	cmovge movsxd	-0.4228092
-1.843664	cmovge movzx	-0.06858283
-2.957607	cmovge neg
-2.957607	cmovge pop
-2.003365	cmovge retn	-0.139748
-2.610864	cmovge sar	-0.4727937
-2.003365	cmovge shl	-0.5624567
-1.595879	cmovge sub	0.08726013
-1.285509	cmovge test	-0.02681208
-1.635388	cmovge xor	-0.09045067
-0.7381748	cmovl add	-0.805264
-2.643467	cmovl and	-0.2285494
-1.518514	cmovl call	-0.27452
-2.454903	cmovl cdqe	-0.1079175
-3.037028	cmovl cmovge
-2.690284	cmovl cmovl	-0.06486979
-0.7989818	cmovl cmp	-0.7859505
-2.082785	cmovl imul	-0.4876999
-1.258877	cmovl jmp	-0.2820194
-1.224115	cmovl lea	-0.3670819
-0.5484772	cmovl mov	-0.2559789
-2.338058	cmovl movsx	-0.397195
-1.518514	cmovl movsxd	-0.6086409
-2.082785	cmovl movzx	-0.1649949
-2.559907	cmovl nop	0.05956219
-3.037028	cmovl pop
-2.643467	cmovl retn	0.0101794
-1.58987	cmovl sar	-1.317892
-2.037028	cmovl shl	-0.9120035
-1.6753	cmovl sub	-0.2522167
-1.210953	cmovl test	0.3249314
-1.445963	cmovl xor	-0.365795
-1.256826	cmovle add	-0.09630871
-3.225309	cmovle addsd
-2.643184	cmovle and	-0.4110591
-1.60206	cmovle call	-0.7506267
-2.225309	cmovle cdqe	-0.3374776
-3.1503	cmovle cmovg
-3.1503	cmovle cmovl
-2.878566	cmovle cmovle	-0.1057878
-0.8750613	cmovle cmp	-0.8212308
-3.1503	cmovle cvtsi2sd
-3.225309	cmovle cvtsi2ss
-3.225309	cmovle divsd
-1.882887	cmovle imul	-0.54014
-1.30103	cmovle jmp	-0.1975246
-1.544068	cmovle lea	-0.3732778
-0.3578418	cmovle mov	-0.8958435
-3.1503	cmovle movsd
-2.748188	cmovle movsx
-1.517739	cmovle movsxd	-0.471189
-2.526339	cmovle movzx	-0.2712458
-2.526339	cmovle neg	-0.05463319
-2.748188	cmovle nop
-3.1503	cmovle or
-2.878566	cmovle pop	0.5488244
-2.111366	cmovle retn	-0.2021751
-2.526339	cmovle sar	-0.05066111
-2.748188	cmovle shl
-1.60206	cmovle sub	0.00993669
-1.094975	cmovle test	0.137791
-3.1503	cmovle xchg	-0.1486017
-1.128399	cmovle xor	-0.366088
-0.9371613	cmovnb add	-1.055028
-2.437822	cmovnb and	-0.5625586
-1.542825	cmovnb call	-0.4734339
-2.673203	cmovnb cmovbe	-0.7346525
-2.673203	cmovnb cmovnb	-0.303924
-0.9230367	cmovnb cmp	-0.4825653
-2.944937	cmovnb imul
-1.588583	cmovnb jmp	-0.2804816
-1.338705	cmovnb lea	-0.6389332
-0.3039433	cmovnb mov	-0.8118907
-1.873819	cmovnb movsxd	-1.138638
-2.626386	cmovnb movzx	-0.4183809
-2.542825	cmovnb nop
-2.944937	cmovnb pop	-0.1985869
-1.906003	cmovnb retn	-0.5078453
-2.673203	cmovnb shl	-0.05776756
-1.873819	cmovnb sub	-0.05891058
-1.162614	cmovnb test	-0.9135146
-3.019947	cmovnb xchg
-1.542825	cmovnb xor	-0.03062952
-0.30103	cmovnp ucomiss
-1.118358	cmovns add	-1.018269
-2.07944	cmovns and	-0.2094698
-1.517998	cmovns call	-0.09484458
-3.150558	cmovns cdqe
-1.257085	cmovns cmp	-0.5231787
-2.878824	cmovns cvtsi2sd	-0.5985709
-3.225568	cmovns cwde
-3.225568	cmovns dec
-2.832007	cmovns imul	-0.3278903
-3.225568	cmovns inc
-1.419388	cmovns jmp	-0.06394613
-1.827628	cmovns lea	-0.4514515
-3.225568	cmovns leave
-0.6378567	cmovns mov	-0.6930692
-3.225568	cmovns movsd
-3.225568	cmovns movss
-2.832007	cmovns movsx	-0.1805233
-2.184175	cmovns movsxd	-0.2459494
-2.184175	cmovns movzx	-0.3645419
-2.878824	cmovns neg	-0.5815815
-2.748446	cmovns or
-3.225568	cmovns pop
-3.150558	cmovns push
-1.995119	cmovns retn	-0.6677008
-0.4681717	cmovns sar	-1.265151
-2.526598	cmovns shl	-0.3963948
-1.794204	cmovns shr	-0.4357277
-1.707054	cmovns sub	-0.06058449
-1.517998	cmovns test	0.05987942
-1.026911	cmovns xor	-0.6253742
-1.064159	cmovnz add	-1.045038
-2.078049	cmovnz and	-0.9640539
-3.906129	cmovnz bt	0.3318777
-1.064159	cmovnz call	-0.8524512
-3.504018	cmovnz cdqe
-3.981139	cmovnz cmovnp
-2.094648	cmovnz cmovnz	-0.07973135
-2.939746	cmovnz cmovp	-0.2001793
-2.424836	cmovnz cmovz	-0.6699237
-1.209551	cmovnz cmp	-0.5088375
-3.504018	cmovnz dec	1.078286
-2.805048	cmovnz imul	-0.2476846
-3.981139	cmovnz inc
-1.144815	cmovnz jmp	-0.5184247
-1.611923	cmovnz lea	-0.4119952
-0.4564831	cmovnz mov	-0.7159548
-3.906129	cmovnz movsd
-3.504018	cmovnz movss	-0.08854114
-3.282169	cmovnz movsx	-0.230528
-2.680109	cmovnz movsxd	-0.0861291
-2.106077	cmovnz movzx	-0.3713761
-3.504018	cmovnz neg	-0.1435789
-2.549775	cmovnz nop	-0.5195296
-3.587578	cmovnz not	-0.5156134
-2.168226	cmovnz or	-0.7747422
-2.583199	cmovnz pop	-0.6698166
-3.906129	cmovnz push
-1.943712	cmovnz retn	-0.6688924
-3.981139	cmovnz ror
-3.504018	cmovnz sar
-3.906129	cmovnz setnz
-3.981139	cmovnz setz
-3.078049	cmovnz shl	-0.1041399
-3.026896	cmovnz shr	-0.04937544
-3.282169	cmovnz stos	-0.8688591
-2.117816	cmovnz sub	-0.09550273
-0.9881437	cmovnz test	-0.5373173
-3.504018	cmovnz ucomisd	-0.1026832
-3.981139	cmovnz ucomiss
-3.981139	cmovnz xchg
-0.8340811	cmovnz xor	-1.374594
-0.69897	cmovp add	-0.5681012
-0.5939664	cmovp mov	-0.2361199
-1.176091	cmovp retn
-1.176091	cmovp test
-0.69897	cmovp xor	-0.4496059
-1.156153	cmovs add	-0.5184785
-2.027058	cmovs and	-0.2590343
-1.726028	cmovs call	-0.4258747
-2.779626	cmovs cdqe	-0.3433689
-2.218944	cmovs cmovns	-0.8863665
-2.474216	cmovs cmovs	-0.8512117
-1.347111	cmovs cmp	-0.5173203
-2.027058	cmovs cvttsd2si	-1.254367
-2.779626	cmovs imul	-0.5702037
-1.186414	cmovs jmp	-0.7122446
-1.424998	cmovs lea	-0.4120508
-0.6391602	cmovs mov	-0.7512692
-2.270096	cmovs movapd	-0.3916752
-2.696065	cmovs movsd	-0.1809796
-2.826443	cmovs movsx	-0.6008177
-2.094005	cmovs movsxd	-0.2465259
-1.501088	cmovs movzx	-0.6809015
-2.591061	cmovs mulsd	-0.3988491
-2.218944	cmovs or	-0.9766923
-3.173186	cmovs pop
-3.098177	cmovs push	-0.3179141
-2.826443	cmovs retn	-0.3720901
-0.5604024	cmovs sar	-1.046292
-2.218944	cmovs shl	-0.3499758
-2.131793	cmovs shr	-0.4790482
-1.616884	cmovs sub	-0.2503569
-1.275559	cmovs test	-0.2918633
-1.177551	cmovs xor	-0.856848
-3.173186	cmovs xorpd
-0.8453036	cmovz add	-0.9981276
-2.445722	cmovz and	-0.520261
-4.169998	cmovz andps
-4.169998	cmovz bsf
-1.251443	cmovz call	-0.7033855
-3.823254	cmovz cdqe	-0.5377209
-2.19687	cmovz cmovnz	-0.5846636
-3.692876	cmovz cmovp	-0.50515
-2.02387	cmovz cmovz	-1.203853
-0.9047079	cmovz cmp	-0.7759324
-2.939549	cmovz cmps	-1.010173
-4.169998	cmovz cvtsi2sd
-4.169998	cmovz cvttsd2si
-4.169998	cmovz dec
-4.094988	cmovz divsd
-4.169998	cmovz fld
-2.914725	cmovz imul	-1.018374
-3.587873	cmovz inc	-0.3137788
-1.159274	cmovz jmp	-0.4974294
-4.169998	cmovz jnz
-0.9426251	cmovz lea	-1.203547
-4.169998	cmovz leave
-0.5565786	cmovz mov	-1.312837
-4.169998	cmovz movsd
-3.823254	cmovz movsx
-2.516785	cmovz movsxd	-0.3357694
-2.020778	cmovz movzx	-0.9742842
-4.094988	cmovz neg	-0.2900509
-2.526545	cmovz nop	-0.4832774
-4.094988	cmovz not
-2.692876	cmovz or	-0.477436
-2.678636	cmovz pop	-1.057226
-3.823254	cmovz push	-0.4090077
-1.70165	cmovz retn	-0.8497611
-4.169998	cmovz sar
-3.169997	cmovz setnz	-0.98568
-2.738634	cmovz shl	-0.9341191
-3.776437	cmovz shr	-0.1611904
-2.187726	cmovz sub	-0.05886686
-1.170432	cmovz test	-0.6039269
-4.169998	cmovz ucomisd
-4.169998	cmovz ucomiss
-4.094988	cmovz xchg	-0.3047038
-1.127816	cmovz xor	-1.029835
-5.245855	cmp </f>	4.57556
-3.190222	cmp adc	-0.8360552
-5.722976	cmp add
-4.060218	cmp addsd	-0.5072472
-4.079523	cmp addss	-0.7195359
-5.722976	cmp andnps
-4.768734	cmp andpd	-0.2768176
-5.647966	cmp andps
-5.722976	cmp call
-3.579961	cmp cdqe	-0.9205589
-2.799214	cmp cmova	-1.029685
-3.012859	cmp cmovb	-0.2409165
-2.851403	cmp cmovbe	-0.1486231
-2.874787	cmp cmovg	-0.4234719
-2.967864	cmp cmovge	-0.1948532
-2.813955	cmp cmovl	-0.2889806
-2.903432	cmp cmovle	-0.0823679
-2.987377	cmp cmovnb	-0.6106914
-4.518856	cmp cmovns	0.1613697
-2.825349	cmp cmovnz	-0.04820037
-4.643795	cmp cmovs	-0.5728248
-2.649991	cmp cmovz	-0.142138
-2.909395	cmp cmps	-0.288012
-5.024006	cmp cvtpd2ps	-0.6932311
-5.329416	cmp cvtps2pd	-0.08191924
-4.325036	cmp cvtsi2sd	-0.3433358
-4.444222	cmp cvtsi2ss	-0.4454279
-4.260578	cmp cvttsd2si	-0.2776041
-5.647966	cmp cvttss2si
-4.722976	cmp cwde	-0.5027959
-4.260578	cmp divsd	-0.3266837
-5.329416	cmp divss	-0.01371089
-5.329416	cmp fdivp	-0.4627394
-4.609033	cmp fild	0.4813688
-4.722976	cmp fld	-0.5292276
-5.722976	cmp fstp
-1.334662	cmp ja	-1.270417
-1.660921	cmp jb	-1.262258
-1.323164	cmp jbe	-1.325564
-1.45611	cmp jg	-0.3818266
-1.737056	cmp jge	0.2461329
-1.777704	cmp jl	-0.07689261
-1.425785	cmp jle	-0.2951653
-4.204462	cmp jmp	-0.3529879
-1.600531	cmp jnb	-1.623399
-2.756365	cmp jns	-0.3935122
-0.6803729	cmp jnz	-0.8766563
-2.705525	cmp js	-0.6047453
-0.4542038	cmp jz	-0.9813547
-1.895542	cmp lea	-2.344431
-5.647966	cmp leave	-0.3179317
-5.376233	cmp maxsd	-0.517312
-5.722976	cmp maxss
-5.647966	cmp minsd	-0.1586085
-0.9524037	cmp mov	-3.365711
-4.191497	cmp movapd	-0.2991048
-5.376233	cmp movaps	-0.130439
-4.576848	cmp movdqa	-1.173585
-5.722976	cmp movhpd
-5.722976	cmp movs
-3.253154	cmp movsd	-0.777033
-3.710139	cmp movss	-0.4553728
-3.426311	cmp movsx	-0.8006787
-2.874171	cmp movsxd	-1.345176
-2.614411	cmp movzx	-1.822027
-5.722976	cmp mulpd
-3.910063	cmp mulsd	-0.4705216
-4.444222	cmp mulss	-0.5029961
-2.435622	cmp nop	-3.532025
-3.937646	cmp not	-0.8929632
-5.722976	cmp orpd
-3.681583	cmp pop	-0.6933681
-2.339699	cmp push	-1.827532
-5.647966	cmp pxor
-2.230774	cmp sbb	-0.3998594
-3.02662	cmp setb	-0.6357814
-3.136389	cmp setbe	-0.362924
-3.398694	cmp setl	-0.3801675
-3.26661	cmp setle	0.01090312
-3.65479	cmp setnb	0.1135691
-3.049955	cmp setnbe	-1.987478
-3.561608	cmp setnl	-0.5426766
-2.883498	cmp setnle	-0.5405791
-2.173237	cmp setnz	-0.6192153
-1.880616	cmp setz	-0.7471039
-4.245855	cmp stos	-0.3469383
-4.518856	cmp subsd	-0.284862
-4.722976	cmp subss	-0.2782882
-5.376233	cmp unpcklpd	-0.1675835
-5.024006	cmp unpcklps	-0.04560909
-2.710561	cmp xchg	-2.555835
-4.400757	cmp xorpd	0.007257789
-5.140851	cmp xorps	-0.2736321
-0.4771213	cmpeqsd andnpd
-0.4771213	cmpeqsd mov
-0.5563465	cmplesd andpd	-0.2731391
-0.8280805	cmplesd movsd
-0.8280805	cmplesd xorpd	-0.3172234
-0.447158	cmpltsd movapd	-0.3943063
-0.5640031	cmpltsd movsd	-0.3494396
-1.071119	cmpltsd xorpd	-0.3172234
-0.845098	cmpltss andps
-0.845098	cmpltss movaps
-0.7700886	cmpltss movss	-0.2220447
-0.845098	cmpltss ucomiss
-0.7700886	cmpltss xorps
-0.6368221	cmpneqsd andnpd	0.2741474
-0.7671999	cmpneqsd andpd	-0.7031656
-0.6368221	cmpneqsd movapd
-0.6368221	cmpneqsd movsd
-0.20412	cmpneqss andps	-0.6537861
-0.90309	cmpneqss cmp
-0.8280805	cmpneqss movaps
-0.7781513	cmpnlesd andpd
-0.30103	cmpnlesd movapd	-0.1729247
-0.7781513	cmpnlesd movsd
-1.623249	cmpnltsd add
-0.4771213	cmpnltsd andpd	-1.113767
-1.623249	cmpnltsd mov
-0.30103	cmpnltsd movapd	-1.239326
-1.146128	cmpnltsd movsd	-0.06584232
-1.623249	cmpnltsd ucomisd
-0.2629731	cmpnltss movaps	0.2935704
-2.986523	cmps cmovnz	-0.9937963
-2.810432	cmps cmovz	-0.3340774
-4.241796	cmps cvtpd2ps
-0.4579633	cmps jnz	-0.7049747
-0.2968195	cmps jz	-1.692143
-2.525792	cmps lea	-0.8620199
-1.305785	cmps mov	-2.861694
-3.542825	cmps movsx	-0.2961896
-3.200403	cmps movzx	-0.562126
-3.659671	cmps pop	-0.4004569
-2.794637	cmps setb	-1.450346
-1.151537	cmps setnbe	-2.588081
-2.378473	cmps setnz	-0.7975156
-1.852629	cmps setz	-1.108661
-1.168792	cmpxchg cmp	-0.8014036
-0.04657614	cmpxchg jnz	-1.135674
-1.725139	cmpxchg test	-0.4742124
-1.431364	comisd cvttsd2si
-0.9542425	comisd ja	0.04664028
-1.037803	comisd jb	-0.07999817
-0.3899711	comisd jbe	-0.03074083
-1.08462	comisd jnb
-1.356354	comisd jz
-1.041393	comiss cvttss2si
-1.041393	comiss ja
-0.9663832	comiss jb
-0.5642715	comiss jbe
-0.9663832	comiss jnb
-1.041393	comiss jz
-1.041393	comiss movss
-1.32838	cpuid and	-0.6102855
-0.8659816	cpuid cmp	-1.180097
-0.204528	cpuid mov	-1.798581
-1.42529	cpuid movzx	-0.8275483
-1.42529	cpuid pop	-0.9537725
-2.32838	cpuid shr
-2.32838	cpuid sub
-1.049626	cpuid test	-0.850489
-1.981636	cpuid xchg	-0.4326677
-0.05115252	cqo idiv	-0.9272876
-2.739572	cvtpd2ps add
-2.664563	cvtpd2ps addsd	-0.3137675
-2.392829	cvtpd2ps addss	-0.1110452
-2.664563	cvtpd2ps andps
-1.159789	cvtpd2ps call	-0.1205923
-2.392829	cvtpd2ps cmpnltss	-0.4023652
-2.739572	cvtpd2ps comiss
-1.171371	cvtpd2ps cvtpd2ps	-0.5643595
-1.660391	cvtpd2ps cvttss2si	-0.3387551
-2.739572	cvtpd2ps divsd
-1.563481	cvtpd2ps divss	-0.07465205
-2.664563	cvtpd2ps jbe
-2.664563	cvtpd2ps jg
-2.392829	cvtpd2ps jle	-0.7450622
-1.359361	cvtpd2ps jmp	-0.07550287
-2.346012	cvtpd2ps jnz	-0.3436608
-2.157447	cvtpd2ps jz	0.1914212
-2.664563	cvtpd2ps lea
-2.739572	cvtpd2ps maxss
-2.157447	cvtpd2ps mov	-0.08393875
-1.341632	cvtpd2ps movaps	-0.7176164
-0.3330322	cvtpd2ps movss	-0.3015455
-2.739572	cvtpd2ps mulsd
-1.417353	cvtpd2ps mulss	-0.005116999
-2.664563	cvtpd2ps pop	-0.317986
-2.664563	cvtpd2ps push
-2.346012	cvtpd2ps retn	-0.1137137
-2.392829	cvtpd2ps subss	-0.03251201
-2.739572	cvtpd2ps test
-1.359361	cvtpd2ps ucomiss	-0.1868205
-2.739572	cvtpd2ps unpcklpd
-1.262451	cvtpd2ps unpcklps	-0.5820074
-2.040602	cvtpd2ps xorps	-0.02378638
-2.905138	cvtps2pd add	-0.1304065
-0.8253702	cvtps2pd addsd	-0.9870507
-3.176872	cvtps2pd andps	-0.1561432
-0.6652942	cvtps2pd call	-0.2813771
-3.251881	cvtps2pd cmovnz
-0.8574298	cvtps2pd cvtps2pd	-0.9078478
-2.77476	cvtps2pd cvtsi2sd	-0.1784317
-2.77476	cvtps2pd cvttsd2si	-0.1665088
-2.77476	cvtps2pd cvttss2si
-1.394549	cvtps2pd divsd	-0.2207724
-3.251881	cvtps2pd divss
-3.251881	cvtps2pd jle
-1.579784	cvtps2pd jmp	-0.2675779
-3.251881	cvtps2pd jns
-3.251881	cvtps2pd jp
-3.251881	cvtps2pd js
-2.905138	cvtps2pd jz	-0.02816847
-2.858321	cvtps2pd lea	-0.0738436
-2.77476	cvtps2pd maxsd	-0.4887809
-2.858321	cvtps2pd minsd	-0.184298
-1.432338	cvtps2pd mov	-0.1382858
-1.76052	cvtps2pd movapd	-0.3848042
-2.552912	cvtps2pd movaps
-1.090513	cvtps2pd movsd	-0.3634273
-1.598669	cvtps2pd movss	-0.6471179
-3.176872	cvtps2pd movsxd
-3.251881	cvtps2pd movzx
-0.9800398	cvtps2pd mulsd	-0.7146634
-2.905138	cvtps2pd mulss	-0.2454936
-2.77476	cvtps2pd pop	0.2400049
-2.905138	cvtps2pd push	0.1467579
-3.176872	cvtps2pd retn
-3.251881	cvtps2pd shl
-2.858321	cvtps2pd sqrtsd	0.1189975
-2.905138	cvtps2pd sub	0.1359248
-1.371068	cvtps2pd subsd	-0.3650397
-2.552912	cvtps2pd subss	-0.1303383
-3.176872	cvtps2pd test
-1.29284	cvtps2pd ucomisd	-0.397721
-1.649822	cvtps2pd unpcklps	-0.5268898
-2.77476	cvtps2pd xor
-3.176872	cvtps2pd xorpd
-3.251881	cvtps2pd xorps
-1.80618	cvtsd2ss and
-1.80618	cvtsd2ss andps
-1.731171	cvtsd2ss call
-1.80618	cvtsd2ss cmp
-1.10721	cvtsd2ss cvtsd2ss	-0.6421478
-1.80618	cvtsd2ss cvtsi2ss
-1.80618	cvtsd2ss cvtss2sd
-1.80618	cvtsd2ss jmp
-1.731171	cvtsd2ss lea	-0.3178563
-1.10721	cvtsd2ss mov	-0.08801146
-1.80618	cvtsd2ss movaps
-1.731171	cvtsd2ss movsd	-0.3158979
-0.287666	cvtsd2ss movss	-0.5859869
-1.80618	cvtsd2ss mulsd
-1.731171	cvtsd2ss mulss
-1.329059	cvtsd2ss ucomiss	-0.590758
-1.80618	cvtsd2ss xor
-1.80618	cvtsd2ss xorps
-1.998602	cvtsi2sd add	-0.6543106
-0.7823731	cvtsi2sd addsd	-0.8805708
-3.922881	cvtsi2sd and
-3.529321	cvtsi2sd andpd	-0.475055
-1.743904	cvtsi2sd call	-0.5510272
-3.922881	cvtsi2sd cmovns
-3.922881	cvtsi2sd cmovs
-3.44576	cvtsi2sd cmovz	-0.04326746
-2.44576	cvtsi2sd cmp	-0.732069
-3.922881	cvtsi2sd comisd
-3.922881	cvtsi2sd cvtpd2ps
-3.529321	cvtsi2sd cvtps2pd	-0.1664832
-3.922881	cvtsi2sd cvtsd2ss
-1.104655	cvtsi2sd cvtsi2sd	-0.5567197
-3.44576	cvtsi2sd cvtsi2ss	-0.06341541
-3.44576	cvtsi2sd cvtss2sd	-0.1496069
-2.096806	cvtsi2sd cvttsd2si	-0.2946651
-3.922881	cvtsi2sd cvttss2si
-3.922881	cvtsi2sd div
-0.7977253	cvtsi2sd divsd	-0.6847044
-3.922881	cvtsi2sd divss
-3.847872	cvtsi2sd idiv
-2.174693	cvtsi2sd imul	-0.860837
-3.922881	cvtsi2sd jl
-2.025254	cvtsi2sd jmp	-0.1755776
-3.847872	cvtsi2sd jnz	-0.05426139
-2.059558	cvtsi2sd js	-0.6404231
-3.44576	cvtsi2sd jz	-0.1673753
-1.832976	cvtsi2sd lea	-0.452326
-3.922881	cvtsi2sd maxsd
-0.6690587	cvtsi2sd mov	-0.6991565
-1.922881	cvtsi2sd movapd	-0.5534471
-1.161705	cvtsi2sd movsd	-0.8017836
-2.8437	cvtsi2sd movss	-0.1125834
-2.74679	cvtsi2sd movsx	-0.1540723
-2.491517	cvtsi2sd movsxd	-0.5323162
-1.858423	cvtsi2sd movzx	-0.8588681
-3.922881	cvtsi2sd mul
-0.9479091	cvtsi2sd mulsd	-0.4602361
-3.922881	cvtsi2sd mulss
-3.223911	cvtsi2sd neg	-0.09570765
-3.529321	cvtsi2sd or	-0.321017
-3.019791	cvtsi2sd pop	0.07073268
-2.561153	cvtsi2sd push	0.1625233
-3.223911	cvtsi2sd retn	-0.2335045
-3.340756	cvtsi2sd sar	-0.1189742
-3.922881	cvtsi2sd setbe
-3.576138	cvtsi2sd shl	-0.5028572
-2.600662	cvtsi2sd shr	-0.5130292
-2.524941	cvtsi2sd sqrtsd	-0.6831917
-2.174693	cvtsi2sd sub	-0.3956249
-1.815671	cvtsi2sd subsd	-0.6824816
-1.936109	cvtsi2sd test	-1.065942
-1.741037	cvtsi2sd ucomisd	-0.1822531
-3.847872	cvtsi2sd unpcklpd	0.2595326
-2.692432	cvtsi2sd unpcklps	-0.5014167
-1.80561	cvtsi2sd xor	-0.8614168
-2.580458	cvtsi2sd xorpd	-0.1266572
-1.915795	cvtsi2ss add	-0.4548911
-3.296007	cvtsi2ss addsd
-1.031189	cvtsi2ss addss	-0.2958883
-3.296007	cvtsi2ss and
-2.949263	cvtsi2ss call
-3.296007	cvtsi2ss cmovz
-2.254614	cvtsi2ss cmp	-0.2821015
-3.220997	cvtsi2ss cvtpd2ps
-3.296007	cvtsi2ss cvtps2pd
-2.713882	cvtsi2ss cvtsi2sd	-0.1455114
-0.9779434	cvtsi2ss cvtsi2ss	-0.2728369
-3.296007	cvtsi2ss cvtss2sd
-2.818885	cvtsi2ss cvttsd2si	-0.02687337
-2.119915	cvtsi2ss cvttss2si	-0.2997407
-0.8998073	cvtsi2ss divss	-0.6019253
-2.119915	cvtsi2ss imul	-0.1883246
-3.296007	cvtsi2ss jle
-2.216825	cvtsi2ss jmp	0.007859975
-3.220997	cvtsi2ss jns	-0.06747887
-3.296007	cvtsi2ss jnz
-2.713882	cvtsi2ss js	-0.1527555
-1.864643	cvtsi2ss lea	-0.4007381
-0.6138616	cvtsi2ss mov	-0.8413011
-1.662538	cvtsi2ss movaps	-0.2137252
-2.149879	cvtsi2ss movsd	-0.3022795
-1.165673	cvtsi2ss movss	-0.3369857
-2.713882	cvtsi2ss movsx	-0.1254626
-2.713882	cvtsi2ss movsxd	-0.06120408
-1.915795	cvtsi2ss movzx	-0.641248
-3.296007	cvtsi2ss mulsd
-0.8646429	cvtsi2ss mulss	-0.3096364
-3.220997	cvtsi2ss nop	-0.3177994
-3.220997	cvtsi2ss or
-2.949263	cvtsi2ss pop	-0.3206148
-3.296007	cvtsi2ss push
-2.597037	cvtsi2ss retn	-0.1679701
-3.296007	cvtsi2ss sar
-3.220997	cvtsi2ss shr	-0.2878128
-2.091887	cvtsi2ss sub	-0.2153336
-1.503615	cvtsi2ss subss	-0.2809781
-2.149879	cvtsi2ss test	-0.5266252
-1.804645	cvtsi2ss ucomiss	-0.6049283
-2.818885	cvtsi2ss unpcklpd	-0.02453339
-1.790857	cvtsi2ss unpcklps	-0.3203227
-1.704942	cvtsi2ss xor	-0.6770793
-2.949263	cvtsi2ss xorps	-0.1299871
-1.997095	cvtss2sd add
-1.195463	cvtss2sd addsd	-0.737784
-1.112488	cvtss2sd call	-0.3518513
-1.997095	cvtss2sd cvtsi2sd
-1.195463	cvtss2sd cvtss2sd	-0.4714745
-1.775246	cvtss2sd cvttsd2si	-0.3967542
-1.892091	cvtss2sd divsd	-0.3159247
-2.474216	cvtss2sd divss
-2.474216	cvtss2sd imul
-1.997095	cvtss2sd jmp	0.1062061
-0.9828545	cvtss2sd lea	-0.77344
-0.599155	cvtss2sd mov	-0.4491569
-2.399207	cvtss2sd movapd	-0.2251954
-2.474216	cvtss2sd movaps
-1.112488	cvtss2sd movsd	-0.2493408
-2.474216	cvtss2sd movss
-2.399207	cvtss2sd movsxd	-0.3166835
-1.432824	cvtss2sd mulsd	-0.240767
-1.997095	cvtss2sd or	-0.4077958
-2.474216	cvtss2sd setnl
-2.127473	cvtss2sd sqrtsd	-0.1820325
-2.474216	cvtss2sd sub
-2.474216	cvtss2sd subsd
-2.474216	cvtss2sd test
-0.7840202	cvtss2sd ucomisd	-1.145263
-2.080656	cvtss2sd xor	-0.1643896
-2.399207	cvtss2sd xorpd
-1.558975	cvttsd2si add	-0.438861
-2.885335	cvttsd2si addsd	-0.2228945
-2.212188	cvttsd2si and	-0.8792519
-3.392451	cvttsd2si bswap	0.04649791
-0.9991128	cvttsd2si call	-0.3203483
-2.513218	cvttsd2si cdqe	-0.1323716
-3.0739	cvttsd2si cmovg	-0.2806474
-1.221947	cvttsd2si cmp	-0.2537496
-3.392451	cvttsd2si cvtps2pd	-0.2122406
-1.15783	cvttsd2si cvtsi2sd	-0.3733321
-2.005062	cvttsd2si cvtsi2ss	-0.5265473
-3.46746	cvttsd2si cvtss2sd
-1.285617	cvttsd2si cvttsd2si	-0.5854828
-2.291369	cvttsd2si divsd	-1.064986
-2.990339	cvttsd2si idiv	-0.578494
-2.885335	cvttsd2si imul	0.1010287
-3.392451	cvttsd2si ja
-3.392451	cvttsd2si jb
-2.353517	cvttsd2si jbe	-0.8582356
-3.392451	cvttsd2si jg
-3.46746	cvttsd2si jge
-3.46746	cvttsd2si jl
-2.990339	cvttsd2si jle	-0.3238804
-1.139081	cvttsd2si jmp	0.1678332
-3.46746	cvttsd2si jns
-2.388279	cvttsd2si jnz	-0.209626
-2.990339	cvttsd2si js	-0.3319402
-2.237011	cvttsd2si jz	-0.008931935
-1.56437	cvttsd2si lea	0.1722004
-3.46746	cvttsd2si maxsd
-0.5166087	cvttsd2si mov	-0.2452548
-1.76849	cvttsd2si movapd	-0.3055013
-3.392451	cvttsd2si movaps
-1.391913	cvttsd2si movsd	-0.4337382
-2.321332	cvttsd2si movss	-0.5142514
-2.036096	cvttsd2si movsx	-1.34914
-2.26334	cvttsd2si movsxd	-0.01375553
-1.814248	cvttsd2si movzx	-1.170063
-1.976098	cvttsd2si mulsd	-0.5449046
-3.46746	cvttsd2si mulss
-2.036096	cvttsd2si neg	-0.9636567
-3.392451	cvttsd2si nop
-2.990339	cvttsd2si not	-0.1358303
-3.46746	cvttsd2si or
-3.0739	cvttsd2si pop	0.381298
-2.990339	cvttsd2si push	-0.4090077
-1.711585	cvttsd2si retn	-0.4458362
-2.56437	cvttsd2si sar	-0.220012
-3.46746	cvttsd2si sbb
-3.392451	cvttsd2si setnz
-3.120717	cvttsd2si shl	-0.1158727
-3.392451	cvttsd2si shr
-1.923392	cvttsd2si sub	-0.01467657
-2.426067	cvttsd2si subsd	-0.2791965
-3.46746	cvttsd2si subss
-1.384675	cvttsd2si test	0.1207237
-3.120717	cvttsd2si ucomiss	-0.6944553
-3.46746	cvttsd2si unpcklps
-1.538041	cvttsd2si xor	-0.3741513
-3.120717	cvttsd2si xorpd
-3.46746	cvttsd2si xorps
-1.776943	cvttss2si add	-0.05619486
-2.509381	cvttss2si addss	-0.5735082
-1.254064	cvttss2si call	0.09190637
-2.379003	cvttss2si cdqe	0.1081628
-1.056784	cvttss2si cmp	-0.2033173
-2.856124	cvttss2si cvtpd2ps
-2.509381	cvttss2si cvtps2pd	-0.7083372
-2.379003	cvttss2si cvtsi2sd
-1.085272	cvttss2si cvtsi2ss	-0.8342067
-1.33761	cvttss2si cvttss2si	-0.06453675
-1.814732	cvttss2si imul	-0.6082151
-2.856124	cvttss2si jb
-2.781115	cvttss2si jg	-0.3017011
-1.441151	cvttss2si jmp	-0.3092608
-2.379003	cvttss2si jnz	-0.3383273
-2.856124	cvttss2si js
-2.781115	cvttss2si jz
-2.462564	cvttss2si lea	-0.07425453
-0.4906365	cvttss2si mov	-0.2605186
-2.273999	cvttss2si movaps	-0.131158
-2.157154	cvttss2si movsd
-1.043211	cvttss2si movss	-0.5308392
-2.379003	cvttss2si movsx	-0.1842216
-2.157154	cvttss2si movsxd	-0.3829143
-2.856124	cvttss2si movzx
-1.901882	cvttss2si mulss	-0.4704442
-2.856124	cvttss2si nop
-2.856124	cvttss2si push
-2.462564	cvttss2si retn	-0.297008
-2.856124	cvttss2si setz
-1.856124	cvttss2si sub	-0.06644198
-2.273999	cvttss2si subss	-0.5311709
-1.174883	cvttss2si test	0.0868994
-2.509381	cvttss2si unpcklpd	-0.1675835
-2.781115	cvttss2si unpcklps	-0.3083872
-1.287923	cvttss2si xor	-0.4973832
-0.03778856	cwd idiv	-1.039023
-0.91833	cwde add	-0.2331892
-2.290478	cwde and	-0.3045807
-1.324095	cwde cdqe	-0.7336578
-1.286307	cwde cmp	-0.0101479
-2.018744	cwde cvtsi2ss	-0.2602845
-1.888367	cwde imul
-1.783363	cwde jmp	-0.2517352
-0.7122754	cwde lea	-0.2290572
-0.5081555	cwde mov	-0.4742972
-2.365488	cwde movsd
-1.971928	cwde movsx	-0.14813
-2.018744	cwde movsxd	-0.2902647
-2.365488	cwde movzx
-2.365488	cwde mulsd
-2.290478	cwde or	-0.2941743
-2.290478	cwde push	-0.3176585
-1.888367	cwde retn
-1.462398	cwde sub	-0.3031628
-1.251545	cwde test	-0.9860957
-1.783363	cwde xor	-0.09533519
-2.293653	dec add	-0.07294543
-3.225663	dec and	-0.1283808
-3.572407	dec bt
-3.225663	dec call	0.1917932
-3.572407	dec cdq
-3.497397	dec cdqe
-2.095286	dec cmp	-0.2029839
-3.225663	dec dec	-0.128189
-3.572407	dec div
-3.225663	dec imul	-0.4085194
-3.225663	dec inc	-0.0918432
-3.572407	dec jle
-2.572407	dec jmp	0.05285648
-3.225663	dec jnb	-0.7361965
-3.572407	dec jns
-2.368287	dec jnz	-0.1650149
-2.458463	dec jz	0.1758823
-2.873437	dec lea	-0.6946161
-2.157434	dec mov	-0.3075411
-3.572407	dec movsd
-2.341958	dec movsxd	-0.3471551
-3.572407	dec or
-3.497397	dec push
-3.572407	dec ror
-0.02438617	dec setnz	-3.540838
-3.497397	dec setz
-2.873437	dec shl	-0.3822142
-2.271377	dec test	-0.05727929
-2.873437	dec xor	-0.218646
-1.347371	div add	-0.5882308
-3.422918	div addsd
-3.422918	div and
-0.904404	div cmp	-0.538891
-3.422918	div dec
-3.347908	div divsd
-1.559595	div imul	-0.6788428
-1.525291	div jmp	-0.5929619
-1.249732	div lea	-0.007826805
-0.3902992	div mov	-0.9341742
-3.347908	div movsd
-3.076174	div movsx	-0.434648
-1.87885	div movsxd	-0.2157924
-1.75082	div movzx	-0.6835068
-2.246827	div neg	-0.7608661
-3.347908	div nop
-3.422918	div not
-3.076174	div or	-0.4077958
-2.080495	div pop	-0.8762819
-2.945797	div push	-0.324782
-2.343737	div retn	-0.535513
-3.347908	div sar	-0.3043066
-2.024978	div shl	-1.372188
-3.076174	div shr	-0.4968562
-1.820858	div sub	-0.1219833
-0.8618166	div test	-0.2555164
-1.055562	div xor	-1.180014
-1.957219	divsd add	-0.1700956
-1.110647	divsd addsd	-0.6484413
-3.580469	divsd and
-2.626226	divsd andpd	-0.6448604
-1.00876	divsd call	-0.493263
-3.580469	divsd cmovnz
-3.580469	divsd cmovz
-2.434341	divsd cmp	0.0352428
-3.580469	divsd comisd
-3.580469	divsd cvtpd2ps
-2.998344	divsd cvtps2pd	-0.05185788
-2.677379	divsd cvtsd2ss	-0.6394242
-1.497683	divsd cvtsi2sd	-0.1976011
-2.626226	divsd cvtsi2ss	-0.2876901
-3.580469	divsd cvtss2sd
-1.325196	divsd cvttsd2si	-0.6311182
-3.580469	divsd cvttss2si
-1.087708	divsd divsd	-0.6227524
-3.505459	divsd imul
-3.580469	divsd ja
-2.881499	divsd jbe	0.1572306
-2.881499	divsd jg	-0.231839
-3.580469	divsd jge
-2.580469	divsd jle	0.001001209
-1.580469	divsd jmp	-0.05270356
-2.325196	divsd jns	-1.028238
-2.466525	divsd jnz	-0.2240484
-1.840106	divsd js	-1.272923
-2.539076	divsd jz	0.2305187
-2.036401	divsd lea	-0.2560897
-2.580469	divsd maxsd	-0.3785247
-2.25825	divsd minsd	0.01265845
-0.7537463	divsd mov	-0.7771025
-1.35002	divsd movapd	-0.3270929
-3.505459	divsd movq	-0.3153525
-0.8284203	divsd movsd	-0.597314
-2.279439	divsd movss	-0.1520955
-3.103348	divsd movsxd
-3.580469	divsd movzx
-1.080782	divsd mulsd	-0.3853427
-3.505459	divsd mulss
-3.103348	divsd nop
-3.580469	divsd pop
-2.25825	divsd retn	0.06812441
-3.103348	divsd sar	-0.1840562
-3.580469	divsd setz
-2.404377	divsd shl	-0.5997672
-3.580469	divsd shr
-2.501287	divsd sqrtsd	-0.6308076
-2.580469	divsd sub	0.2149559
-1.688374	divsd subsd	-0.6216543
-3.580469	divsd subss
-2.000685	divsd test	0.3847923
-1.563435	divsd ucomisd	-0.5970467
-1.781128	divsd unpcklpd	-1.067121
-2.881499	divsd unpcklps	0.1861421
-3.505459	divsd xchg	-0.1486017
-2.998344	divsd xor	-0.06374408
-2.165495	divsd xorpd	-0.3903393
-3.505459	divsd xorps
-1.808436	divss add	-0.1944085
-1.042519	divss addss	-0.791591
-1.489677	divss call	-0.1765043
-2.887617	divss cmp
-2.410496	divss cvtps2pd
-2.410496	divss cvtsi2sd	-0.1325397
-1.369103	divss cvtsi2ss	-0.02075028
-1.808436	divss cvtss2sd	-0.1221583
-2.410496	divss cvttsd2si	-0.6016157
-1.369103	divss cvttss2si	-0.1941431
-2.887617	divss divsd
-1.188647	divss divss	-0.3531604
-1.657168	divss jmp	-0.1794204
-2.887617	divss jnb
-2.887617	divss jns
-2.812608	divss jnz
-2.410496	divss js	-0.5996236
-2.812608	divss jz
-2.494057	divss lea	0.2408005
-1.808436	divss minss	-0.3381457
-1.102287	divss mov	-0.2907583
-2.812608	divss movapd
-1.396256	divss movaps	0.4096958
-2.812608	divss movsd
-0.6299387	divss movss	-0.1032654
-2.540874	divss movsxd	0.1203646
-1.124189	divss mulss	-0.2992266
-2.887617	divss nop
-2.410496	divss pop	-0.1844886
-2.887617	divss push
-2.305492	divss retn	-0.1433948
-2.887617	divss shl
-2.887617	divss sqrtsd
-2.812608	divss sub	-0.05154911
-1.773674	divss subss	-0.2570345
-2.887617	divss test
-1.331315	divss ucomiss	-0.6201075
-1.018386	divss unpcklps	-0.5124978
-2.887617	divss xor
-2.812608	divss xorps
-1.49293	fadd cmp	-0.5269673
-1.409369	fadd fld	-0.1363434
-0.9834008	fadd fucomip	-0.903833
-0.6823707	fadd fxch	-0.6406734
-0.2632414	fadd jmp	-0.9024221
-1.886491	fadd jnz
-1.886491	fadd mov
-0.7031418	faddp jle
-0.7031418	faddp jmp
-0.7031418	faddp jnz
-0.7781513	fchs fcmove	0
-1.255273	fchs fldz
-1.255273	fchs jl
-1.180263	fchs jmp
-0.3521825	fchs lea	-0.6844026
-1.255273	fchs nop
-1.180263	fchs pop	0.1065013
-0.1249387	fcmovbe fstp	-0.1273476
-0.1249387	fcmove fstp	-0.5462722
-0.1249387	fcmovne fstp	-0.1273476
-0.30103	fdiv jmp
-0.8617122	fdivp jz	-0.5269503
-0.8617122	fdivp mov	-0.576808
-0.8617122	fdivp test	-0.526972
-1.838849	fild fmul
-0.4409091	fild jns	-1.413445
-0.2825466	fild js	-0.4475077
-1.838849	fild jz
-1.139879	fild nop	-0.9644283
-0.01189922	fistp fldcw	-1.10798
-0.4771213	fisttp add
-0.4771213	fisttp jo
-1.396602	fld add	-0.3985096
-2.033424	fld cmp	0.003529564
-1.280096	fld fadd	-1.068234
-2.116985	fld faddp	0.07376242
-2.033424	fld fchs	-0.5228788
-1.033424	fld fld	-0.3104843
-2.510545	fld fldz
-1.306425	fld fmul	-0.2590244
-2.510545	fld fmulp
-1.556303	fld fprem	0
-2.435536	fld fst
-0.9790661	fld fstp	-0.7126958
-2.510545	fld fsubp
-2.435536	fld fucomi	-0.3061015
-1.148817	fld fucomip	-0.2446253
-0.9790661	fld fxch	-0.4622314
-1.280096	fld jmp	0.1434996
-2.510545	fld jnz
-1.188326	fld jz	-1.339163
-1.556303	fld lea	-0.2753306
-2.033424	fld leave	0.5519055
-0.9194804	fld mov	-0.4900833
-2.510545	fld movapd
-1.607455	fld movsd	-0.2178155
-2.510545	fld movsxd
-2.033424	fld mulsd	-0.533906
-1.255273	fld or	-1.084489
-2.510545	fld sub
-1.811575	fld test	0.03271838
-2.435536	fld xor
-1.180263	fld1 and
-1.255273	fld1 fchs
-1.180263	fld1 fld
-1.180263	fld1 fucomi	-0.2873252
-1.255273	fld1 jmp
-1.255273	fld1 mov
-1.180263	fld1 movapd	-0.2703302
-1.255273	fld1 movsxd
-0.8617122	fld1 xor	-0.347684
-0.3930875	fldcw fistp	0
-1.0463	fldcw fxam	0
-1.55583	fldcw fxch	-0.4240894
-1.0463	fldcw jmp	-0.940287
-0.4722688	fldcw mov	-1.150475
-1.94939	fldcw test
-1.377532	fldz add	-0.1305188
-1.724276	fldz fchs
-1.649266	fldz fld
-1.724276	fldz fmul
-1.247155	fldz fucomip	0.1473535
-0.5481846	fldz fxch	-0.9139795
-1.142151	fldz jmp	-0.6123935
-0.6828832	fldz mov	-0.4340013
-1.724276	fldz movsd
-1.724276	fldz nop
-1.649266	fldz pop	0.1065013
-1.649266	fldz sub
-1.724276	fldz test
-1.724276	fldz xchg
-1.724276	fldz xor
-0.9681675	fmul add	-0.526969
-1.286718	fmul fadd	-0.3007351
-1.286718	fmul fld	-0.2860155
-0.7796029	fmul fxch	-0.2524022
-0.9681675	fmul jz	-0.5269503
-0.4771213	fmulp jle	-0.3238804
-0.5606821	fmulp jz	-0.238228
-0.009545318	fnstcw movzx	-1.535933
-0.02482358	fnstsw test	-0.7135394
-0.04575749	fprem fnstsw	0.2552725
-0.2260206	frstor add	-0.2621234
-1.113943	fst fst
-0.6368221	fst fstp	-0.5254886
-1.113943	fst fxch
-1.113943	fst jz
-0.720383	fst movsd	-0.5857871
-1.113943	fst xor
-2.562293	fstp add
-0.7914408	fstp call	-0.4910303
-1.60805	fstp cmp	-0.2745319
-2.215549	fstp fld
-1.483112	fstp fnstcw	0.5488145
-0.9188402	fstp fstp	-0.511587
-1.562293	fstp fxch	-0.306656
-2.085172	fstp ja	-0.5786803
-2.168732	fstp jb	-0.4711933
-1.5209	fstp jbe	-0.7484518
-0.9090803	fstp jmp	-0.3324803
-2.215549	fstp jnz
-1.261263	fstp jp	-1.08582
-2.487283	fstp jz
-1.164353	fstp lea	-0.9896132
-0.9188402	fstp mov	-0.6846578
-1.483112	fstp movsd	-0.7172691
-2.487283	fstp movsx
-2.487283	fstp movsxd	-0.3179884
-1.358173	fstp movzx	-1.221668
-1.60805	fstp nop	-0.03048129
-2.562293	fstp push
-2.085172	fstp setnbe
-1.483112	fstp setnz	-1.112538
-2.562293	fstp sub
-2.085172	fstp test	0.08130106
-2.562293	fstp xchg
-2.085172	fstp xor
-2.562293	fstp xorpd
-0.30103	fsubp jnz
-0.0234811	fsubr fxch	-1.175865
-1.166331	fucomi fcmovbe	0
-0.3212334	fucomi fstp	-0.7030684
-1.568443	fucomi jbe	-0.3179242
-0.3881802	fucomi jnb	-1.278285
-0.2722583	fucomip fstp	-0.692244
-1.469762	fucomip ja	-0.2958472
-0.7841416	fucomip jbe	-1.11365
-0.9602329	fucomip jnz	-0.9537634
-1.788313	fucomip setnbe
-1.469762	fucomip setnz	-0.525573
-0.05115252	fxam fnstsw	0.30103
-1.71365	fxch fdivp	-0.4627394
-2.032201	fxch fld
-1.71365	fxch fnstcw	1.13578
-2.032201	fxch fst
-1.630089	fxch fstp	-0.1536765
-0.5390083	fxch fucomi	-0.6353009
-0.7849907	fxch fucomip	-1.010579
-1.71365	fxch fxch	-0.2925505
-1.20412	fxch jmp	-0.3252326
-2.10721	fxch lea
-0.6758462	fxch mov	-0.7252865
-1.630089	fxch movsd	-0.1844524
-1.630089	fxch movsxd
-2.10721	fxch nop
-2.10721	fxch setnbe
-2.10721	fxch test
-0.00152652	hlt </f>	2.025026
-2.676694	hlt jmp	0.1062061
-3.153815	hlt mov
-1.220553	idiv add	-0.7043948
-3.01759	idiv and	-0.09580591
-3.147968	idiv bt	-0.4933944
-3.494711	idiv call
-1.989561	idiv cdqe	-0.1152874
-1.132983	idiv cmp	-0.5564609
-3.494711	idiv cvtps2pd
-2.540468	idiv cvtsi2sd	-0.1690933
-3.147968	idiv cvtsi2ss	-0.1236563
-3.494711	idiv cvttss2si
-3.494711	idiv cwde
-1.390907	idiv imul	-0.824245
-1.681798	idiv jmp	-0.04204607
-1.277227	idiv lea	-0.1431496
-0.3529478	idiv mov	-0.8548654
-3.494711	idiv movapd
-3.419702	idiv movsd
-2.264262	idiv movsx	-0.4774734
-1.370859	idiv movsxd	-0.4776652
-2.096771	idiv movzx	-0.2872567
-3.147968	idiv mulsd	-0.1302437
-3.494711	idiv mulss
-2.494711	idiv neg	-0.4786924
-3.494711	idiv or
-3.147968	idiv pop	-0.6257029
-3.147968	idiv push	-0.4678321
-3.101151	idiv retn	-0.359916
-3.494711	idiv sar
-2.1145	idiv shl	-0.08967951
-3.147968	idiv shr	-0.02531625
-1.586226	idiv sub	-0.2225245
-0.7897031	idiv test	-0.3808447
-3.494711	idiv ucomisd
-3.494711	idiv unpcklps
-1.597084	idiv xor	-0.8469243
-3.494711	idiv xorps
-0.8940232	imul add	-0.4776713
-4.179418	imul addsd
-2.225044	imul and	-0.9454328
-1.48284	imul call	-0.5007918
-4.254427	imul cdq
-2.05577	imul cdqe	-0.5667133
-1.285011	imul cmp	-0.3478867
-3.351337	imul cqo	0
-4.254427	imul cvtps2pd
-2.564231	imul cvtsi2sd	-0.1858867
-3.023978	imul cvtsi2ss	-0.432428
-4.254427	imul cvttsd2si
-4.254427	imul cvttss2si
-2.233238	imul div	-0.3570929
-3.672302	imul divsd	-0.2464077
-4.254427	imul divss
-3.777306	imul idiv	0.07017079
-1.350795	imul imul	-0.4559484
-4.254427	imul inc
-1.675788	imul jmp	-0.1858141
-1.080658	imul lea	-0.9219239
-2.538424	imul leave	-0.5703104
-0.4441947	imul mov	-1.390502
-3.777306	imul movapd
-4.179418	imul movaps
-3.078336	imul movsd	-0.1724751
-3.213035	imul movss	-0.1164803
-2.641643	imul movsx	-0.5636268
-1.573186	imul movsxd	-0.4480023
-1.87241	imul movzx	-0.4934158
-3.300185	imul mul	0.5621396
-3.254427	imul mulsd	0.01252143
-3.860867	imul mulss
-2.763066	imul neg	-0.4666322
-2.807269	imul nop	-1.089479
-4.254427	imul not
-2.749277	imul or	-0.3681286
-2.631178	imul pop	0.08827853
-2.530151	imul push	0.4685458
-2.710359	imul retn	-0.3746396
-3.555457	imul ror	-0.5410886
-1.353514	imul sar	-1.502246
-2.157517	imul shl	-0.04375613
-2.099091	imul shr	-0.3020097
-4.179418	imul stos
-1.036417	imul sub	-0.2689279
-1.670096	imul test	-0.08755803
-3.907684	imul unpcklps	-0.1840674
-4.179418	imul xchg
-1.714098	imul xor	-0.5187601
-4.254427	imul xorpd
-4.179418	imul xorps
-0.4178751	in and	-0.8582231
-1	in lea
-1	in test
-1	in xchg
-1.362637	inc add	-0.6991349
-3.206706	inc and
-3.206706	inc bt	0.3318777
-2.077595	inc call	-0.08376145
-3.206706	inc cdqe
-3.281715	inc cmovz
-1.332325	inc cmp	-0.1705343
-2.202534	inc dec	-0.4457138
-3.281715	inc div
-2.69959	inc imul	0.1080244
-1.819317	inc inc	-0.4959098
-1.737647	inc jmp	-0.3437809
-1.609617	inc jnz	-0.7398225
-2.582745	inc jz
-2.240322	inc lea	0.02935523
-1.069527	inc mov	-0.2922947
-2.582745	inc movsx	-0.4617576
-2.934972	inc movsxd	-0.3511753
-3.206706	inc movzx
-3.281715	inc nop
-3.281715	inc or
-2.582745	inc pop	-0.3441945
-2.804594	inc retn
-2.934972	inc sar	-0.1145149
-0.161141	inc setnz	-1.723771
-2.582745	inc shl	-0.6161135
-2.69959	inc shr	-0.03096889
-2.582745	inc sub	-0.1601172
-1.668931	inc test	-0.2401976
-2.582745	inc xor	-0.218646
-0.90309	int </f>
-0.90309	int dec
-0.8280805	int mov
-0.90309	int retn
-0.4259687	int test	-0.05664288
-1.280582	ja add	-0.8201112
-3.901762	ja addsd	-0.05464724
-4.483887	ja addss
-2.534497	ja and	-0.4912299
-4.483887	ja andpd
-4.483887	ja bswap
-2.050917	ja call	-0.426962
-3.784917	ja cbw	-0.6368291
-2.44646	ja cdqe	-0.6048321
-0.8531538	ja cmp	-0.8552221
-4.483887	ja comiss
-3.279767	ja cvtsi2sd	-0.3095757
-4.408877	ja cvtsi2ss
-4.006765	ja cvtss2sd	-0.05857907
-2.952408	ja cvttsd2si	-0.3396786
-4.090326	ja cvttss2si	-0.1741954
-4.090326	ja cwde	-0.4333316
-3.784917	ja dec	-0.3949071
-3.784917	ja divsd	-0.3137088
-4.408877	ja divss
-4.483887	ja fstp
-4.483887	ja fxch
-2.564809	ja imul	-0.4460164
-2.915685	ja jb	0.10113
-1.340248	ja jmp	-0.1875566
-2.904103	ja jnb	-0.2856899
-3.442494	ja jnp	-0.9283532
-2.850418	ja jnz	-0.3575985
-2.915685	ja jp	-0.4518867
-2.767883	ja jz	-0.1124211
-1.063271	ja lea	-1.833257
-4.483887	ja maxsd
-0.3843787	ja mov	-1.693674
-2.793691	ja movapd	-0.1432785
-3.307796	ja movaps	0.5264333
-4.483887	ja movd
-4.483887	ja movdqu
-2.404706	ja movsd	-0.4485611
-2.784917	ja movss	-0.3393523
-1.885096	ja movsx	-0.9388845
-1.668974	ja movsxd	-0.9515179
-1.355164	ja movzx	-1.232255
-3.307796	ja mulsd	-0.2570723
-4.483887	ja mulss
-2.965373	ja neg	-0.829986
-1.483887	ja nop	-1.096761
-3.337759	ja not	-0.3762979
-2.720459	ja or	-0.2763236
-2.09828	ja pop	-0.9558591
-4.483887	ja push
-4.483887	ja pxor
-2.691495	ja retn	-0.1317873
-4.483887	ja ror
-4.483887	ja sbb
-3.580797	ja setb	-0.4853437
-4.483887	ja setnz
-3.442494	ja setz	-0.592297
-2.207425	ja shl	-0.6583863
-3.307796	ja shr	-0.6831259
-4.483887	ja sqrtsd
-1.783183	ja sub	-0.6067939
-3.483887	ja subsd	-0.3202572
-4.090326	ja subss	-0.5149046
-1.354519	ja test	-0.6856488
-2.483887	ja ucomisd	-0.5231231
-3.141464	ja ucomiss	-0.6863074
-4.006765	ja unpcklps	-0.5423113
-2.614655	ja xchg	-0.514553
-1.612898	ja xor	-0.9445491
-3.006765	ja xorpd	-0.74867
-3.529644	ja xorps	-0.2952182
-1.349297	jb add	-0.5129737
-2.900883	jb addsd	-0.9291404
-3.201913	jb addss	-0.8602479
-2.813733	jb and	-0.7641581
-4.081146	jb bswap	0.04649791
-2.173884	jb call	-0.01632661
-3.076974	jb cdqe	-0.6845359
-0.9188629	jb cmp	-0.8479608
-4.156155	jb cmpltsd
-4.156155	jb comiss
-3.156155	jb cvtsi2sd	-0.2483267
-3.679034	jb cvtsi2ss	-0.06341541
-4.081146	jb cvtss2sd
-3.762595	jb cvttsd2si	-0.4656834
-4.156155	jb cvttss2si
-4.081146	jb dec
-4.081146	jb divsd
-4.156155	jb fstp
-2.465959	jb imul	-0.7117316
-4.156155	jb inc
-2.221657	jb ja	-0.3925767
-2.242342	jb jbe	-0.8947936
-1.289868	jb jmp	-0.5539927
-2.855125	jb jnz	-0.4322321
-2.637641	jb jz	-1.188391
-1.317936	jb lea	-0.9297305
-0.2738015	jb mov	-1.476035
-2.925706	jb movapd	-0.1201744
-3.57403	jb movaps	0.3071076
-2.532906	jb movdqa	-1.156019
-3.679034	jb movdqu	-0.4359739
-2.237077	jb movsd	-0.3500533
-2.855125	jb movss	-0.2380464
-2.343242	jb movsx	-0.6808224
-2.415792	jb movsxd	-0.5545676
-1.774138	jb movzx	-0.2609831
-3.076974	jb mulsd	-0.4110939
-3.57403	jb mulss	-0.3646344
-3.762595	jb neg	-0.4227408
-1.742856	jb nop	-0.7436705
-4.081146	jb not
-3.253065	jb or	0.09438412
-2.336611	jb pop	-0.4033981
-2.877402	jb retn	0.04615432
-4.156155	jb ror
-4.156155	jb setbe
-2.253065	jb setnbe	-1.88848
-3.457185	jb setnz	-0.9213499
-3.809412	jb setz	-0.6553419
-2.855125	jb shl	-0.4353753
-3.201913	jb shr	-0.4219563
-4.156155	jb sqrtsd
-1.692262	jb sub	-0.1773832
-2.693757	jb subsd	-0.4640956
-2.833936	jb subss	-1.296177
-1.435996	jb test	-0.5892907
-2.084273	jb ucomisd	-0.1968746
-2.855125	jb ucomiss	-0.5657483
-2.952035	jb unpcklps	-0.15262
-2.724792	jb xchg	-0.362337
-1.609613	jb xor	-0.4003714
-3.201913	jb xorpd	-0.1633119
-3.253065	jb xorps	-0.2085545
-4.417625	jbe </f>	4.859626
-1.437639	jbe add	-0.7649827
-3.150212	jbe addsd	-0.2813736
-3.262186	jbe addss	-0.7534608
-2.785064	jbe and	-0.6374655
-4.145891	jbe andpd	-0.1136522
-4.492635	jbe andps
-1.656311	jbe call	-0.7428452
-3.191605	jbe cdqe	-0.2362184
-0.816948	jbe cmp	-1.178469
-4.492635	jbe cmpnltsd
-4.417625	jbe comisd
-2.987485	jbe cvtsi2sd	-0.5868309
-4.145891	jbe cvtsi2ss
-3.492635	jbe cvtss2sd	-0.2764545
-2.839422	jbe cvttsd2si	-0.677444
-3.793665	jbe cvttss2si	-0.2284518
-4.492635	jbe dec
-3.378691	jbe divsd	-0.1283748
-3.413453	jbe divss	-0.3444635
-3.170415	jbe fld	-1.247837
-4.417625	jbe fst	-0.2262763
-3.793665	jbe fstp	-0.09967283
-2.987485	jbe imul	-0.2841216
-4.099074	jbe inc	-0.4456009
-4.015513	jbe jle	-0.3238804
-1.644446	jbe jmp	-0.1619473
-1.003802	jbe lea	-1.347433
-4.492635	jbe leave
-4.492635	jbe maxsd
-4.492635	jbe maxss
-4.145891	jbe minsd	-0.5857245
-4.492635	jbe minss
-0.3484031	jbe mov	-1.727067
-2.505863	jbe movapd	-0.2658201
-3.130907	jbe movaps	0.2248205
-4.417625	jbe movdqa	-0.3176074
-2.054884	jbe movsd	-0.596123
-2.451242	jbe movss	-0.4312872
-2.247122	jbe movsx	-0.5319399
-2.218477	jbe movsxd	-0.4327518
-1.303987	jbe movzx	-0.7293172
-2.987485	jbe mulsd	-0.6166081
-4.417625	jbe mulss
-4.145891	jbe neg	0.03662503
-1.650025	jbe nop	-1.281428
-3.91051	jbe not	-0.225969
-2.879851	jbe or	-0.3746409
-2.399213	jbe pop	-1.013537
-4.015513	jbe psrldq	0.04215716
-4.492635	jbe push
-4.492635	jbe pxor
-2.623403	jbe retn	-0.2661431
-4.492635	jbe rol
-4.417625	jbe ror
-4.099074	jbe sar	-0.4606195
-2.673091	jbe shl	-0.814717
-2.948567	jbe shr	-0.5342022
-1.656311	jbe sub	-0.2581779
-3.451242	jbe subsd	-0.1262148
-3.538392	jbe subss	-0.2426866
-1.437639	jbe test	-0.5103567
-2.829877	jbe ucomisd	-0.2949063
-3.015513	jbe ucomiss	-1.168206
-3.589545	jbe unpcklpd	-0.3255634
-3.492635	jbe unpcklps	-0.1048861
-2.987485	jbe xchg	-0.3653602
-1.500081	jbe xor	-1.049302
-3.130907	jbe xorpd	-0.3151441
-4.145891	jbe xorps	-0.2158991
-1.079181	jecxz mov
-0.07918125	jecxz shl	-0.8207494
-1.252152	jg add	-0.8912674
-4.440799	jg addsd
-2.750603	jg and	-0.5174237
-4.440799	jg bt
-1.651218	jg call	-0.8051454
-2.526985	jg cdqe	-0.1985327
-0.8084429	jg cmp	-0.9543998
-3.042859	jg cvtsi2sd	-0.1787114
-3.486557	jg cvtsi2ss	-0.2894319
-4.440799	jg cvttsd2si
-4.365789	jg cvttss2si
-4.365789	jg cwde
-3.162045	jg dec	-0.01597691
-4.440799	jg divsd
-4.440799	jg divss
-4.440799	jg fld
-4.440799	jg fld1
-4.440799	jg fldz
-2.778041	jg imul	-0.5959653
-4.440799	jg inc
-4.440799	jg jbe
-2.949437	jg jge	-0.2353013
-2.436478	jg jl	-1.473293
-1.212399	jg jmp	-0.1356757
-2.449573	jg jnz	-0.5717406
-2.407375	jg jz	-0.4293859
-1.114053	jg lea	-1.003832
-4.094056	jg leave	0.4088554
-0.4241416	jg mov	-1.510416
-3.858674	jg movapd	0.02307015
-4.440799	jg movaps
-2.963678	jg movdqa	-1.294889
-4.365789	jg movdqu
-2.759558	jg movsd	-0.2309142
-3.11858	jg movss	-0.1827049
-2.133303	jg movsx	-0.4763248
-1.378217	jg movsxd	-0.8844804
-1.811389	jg movzx	-0.7689016
-3.741829	jg neg	0.06605584
-1.490434	jg nop	-1.294848
-3.440799	jg not	-0.2870852
-2.949437	jg or	-0.2178701
-2.051633	jg pop	-0.4164437
-2.787586	jg retn	-0.3022361
-3.21035	jg sar	-0.5174417
-3.858674	jg setl	-0.5954363
-4.094056	jg setz
-2.708405	jg shl	-0.6416863
-3.440799	jg shr	-0.3794563
-1.920971	jg sub	0.001386762
-4.440799	jg subsd
-1.209584	jg test	-0.8370464
-4.094056	jg ucomisd	-0.0009135753
-3.963678	jg ucomiss
-3.858674	jg unpcklps	-0.3909639
-2.621255	jg xchg	-0.2910888
-1.433905	jg xor	-1.119223
-3.858674	jg xorpd	-0.1459266
-4.365789	jg xorps
-1.259105	jge add	-0.6167241
-3.088766	jge and	-0.3434153
-2.025975	jge call	-0.2836822
-2.088766	jge cdqe	-0.4526014
-1.074059	jge cmp	-0.5089043
-3.001616	jge cvtsi2sd	-0.1098414
-3.001616	jge cvtsi2ss	-0.08889005
-4.043008	jge cwde
-3.565887	jge divsd
-3.967999	jge fstp	-0.2608512
-2.440948	jge imul	-0.6862652
-2.838888	jge inc	-1.211185
-1.683173	jge jmp	-0.2407845
-1.360863	jge lea	-0.5574996
-0.2958297	jge mov	-1.508854
-4.043008	jge movapd
-4.043008	jge movaps
-2.929065	jge movsd	-0.05433846
-3.967999	jge movss
-2.216933	jge movsx	-0.3024436
-1.018523	jge movsxd	-1.055105
-1.628035	jge movzx	-0.936595
-3.565887	jge mulsd	-0.5531081
-3.001616	jge neg	-0.3881633
-1.453059	jge nop	-0.8834289
-3.565887	jge not	-0.1358303
-2.89688	jge or	-0.05030966
-2.551647	jge pop	-0.6383312
-2.963827	jge retn	-0.03722221
-3.139918	jge shl	-0.2818955
-3.344038	jge shr	-0.3583978
-1.633075	jge sub	-0.5286089
-1.28033	jge test	-0.4987073
-4.043008	jge ucomisd
-2.741978	jge xchg	-0.245626
-1.792588	jge xor	-0.2715261
-3.344038	jge xorpd	0.03923336
-1.207738	jl add	-0.470961
-3.448434	jl and	-0.8007059
-4.030559	jl andpd
-4.030559	jl bswap
-1.913288	jl call	0.06659186
-2.568161	jl cdqe	-0.5836877
-0.9403012	jl cmp	-0.5926222
-2.650348	jl cvtsi2sd	-0.2114745
-3.331589	jl cvtsi2ss	0.01998576
-3.95555	jl cwde	-0.3107826
-4.030559	jl dec
-3.030559	jl imul	-0.4535062
-3.95555	jl inc
-2.10628	jl jg	-0.7118676
-2.349318	jl jle	-0.1118257
-1.302205	jl jmp	-0.3943423
-1.624019	jl jnz	-0.6225747
-1.404219	jl jz	-0.7302034
-1.197412	jl lea	-0.6964111
-0.4016597	jl mov	-0.991951
-3.448434	jl movapd	0.02307015
-4.030559	jl movaps
-3.95555	jl movdqa	-0.3056391
-4.030559	jl movdqu
-2.80011	jl movsd	-0.2005999
-3.95555	jl movss
-2.224379	jl movsx	-0.5489726
-1.34125	jl movsxd	-0.7382673
-1.906708	jl movzx	-0.4519213
-2.989166	jl neg	-0.5670723
-1.508115	jl nop	-0.7174207
-3.331589	jl not	-0.4577827
-2.525409	jl or	-0.2771968
-2.290197	jl pop	-0.7633057
-4.030559	jl push
-2.916616	jl retn	0.1404942
-3.95555	jl sar
-3.95555	jl setle	-0.2399607
-2.306283	jl setnle	-1.669937
-3.127469	jl setnz	-0.02893552
-3.030559	jl setz	-0.5364762
-2.775287	jl shl	-0.4521054
-3.553438	jl shr	-0.5683023
-1.775287	jl sub	-0.6343167
-4.030559	jl subsd
-3.95555	jl subss
-1.286266	jl test	-0.4982053
-3.95555	jl ucomisd
-2.486491	jl xchg	-0.3182737
-1.557803	jl xor	-0.7360923
-3.331589	jl xorpd	-0.09622548
-1.530569	jle add	-0.6388166
-4.581041	jle addsd	-0.2433884
-4.178929	jle addss	-0.560966
-2.915688	jle and	-0.5833343
-4.65605	jle andpd
-1.807246	jle call	-0.487052
-2.050745	jle cdqe	-0.7953091
-0.9611819	jle cmp	-0.9458305
-2.792727	jle cvtsi2sd	-0.02972233
-3.25811	jle cvtsi2ss	-0.5446273
-4.26249	jle cvtss2sd	-0.4010665
-4.073925	jle cwde	-0.2016941
-4.581041	jle dec	-0.3149611
-4.581041	jle fldz	-0.3081441
-4.26249	jle fstp	-0.4698351
-2.614658	jle imul	-0.4617497
-4.65605	jle inc
-1.899414	jle jmp	-0.2171422
-1.088318	jle lea	-1.207607
-0.3251497	jle mov	-2.017337
-3.95708	jle movapd
-3.95708	jle movaps	-0.09934838
-2.660415	jle movsd	-0.5268648
-3.35502	jle movss	-0.09248301
-2.327671	jle movsx	-0.9233871
-1.270623	jle movsxd	-0.8716221
-1.587864	jle movzx	-0.7398597
-4.581041	jle mulsd
-3.164689	jle neg	-0.6411721
-1.649157	jle nop	-1.394155
-4.073925	jle not	-0.2003566
-2.775237	jle or	-0.4591363
-2.836506	jle pop	-0.2953718
-3.043266	jle retn	-0.249368
-4.581041	jle ror	-0.259175
-3.25811	jle sar	-0.5502739
-3.087848	jle shl	-0.5919088
-3.45193	jle shr	-0.6769693
-4.65605	jle sqrtsd
-1.541106	jle sub	-0.2502561
-4.581041	jle subsd	-0.2183462
-1.421533	jle test	-0.8227942
-4.073925	jle ucomisd	-0.1802775
-4.65605	jle ucomiss
-4.581041	jle unpcklps
-2.687567	jle xchg	-0.4912986
-1.11522	jle xor	-1.224095
-3.064986	jle xorpd	-0.3819269
-3.45193	jle xorps	-0.02584052
-0.8898072	jmp </f>	0.3791695
-4.120049	jmp DATA	0.2717677
-5.613241	jmp adc	-0.274943
-1.440008	jmp add	-1.311208
-4.183101	jmp addsd	-0.1208292
-5.29469	jmp addss	-0.4298164
-2.633255	jmp and	-1.282563
-5.341507	jmp andpd	0.178862
-5.688251	jmp andps
-5.688251	jmp bsf
-5.688251	jmp bsr
-5.688251	jmp bswap
-1.28946	jmp call	-1.190174
-3.158051	jmp cdqe	-0.2173364
-1.167283	jmp cmp	-0.9026296
-5.613241	jmp cmpltsd	-0.1795907
-3.368104	jmp cvtsi2sd	-0.4984782
-3.836992	jmp cvtsi2ss	-0.6323624
-4.183101	jmp cvtss2sd	-0.6097631
-4.00701	jmp cvttsd2si	-0.6488779
-4.326523	jmp cvttss2si	-0.9205021
-5.106126	jmp cwde	-0.1809828
-4.366031	jmp dec	1.090495
-4.387221	jmp divsd	-0.4071999
-5.29469	jmp divss	0.03350835
-4.225852	jmp fadd	-0.8998604
-4.097186	jmp fld	-0.4187177
-5.21113	jmp fld1	-0.1548237
-4.646858	jmp fldz	-0.2769407
-4.273277	jmp fnstcw	0.2313942
-5.688251	jmp fst
-3.819019	jmp fstp	-0.8396837
-4.609069	jmp fxch	-0.2312284
-5.688251	jmp hlt
-3.1997	jmp imul	-0.5366402
-3.902921	jmp inc	-0.8201786
-4.409497	jmp ja	-0.7165173
-4.609069	jmp jb	0.05476812
-4.574307	jmp jbe	-0.7151854
-4.120049	jmp jg	-0.2897259
-4.290311	jmp jge	-0.3959805
-3.650824	jmp jl	-0.7983926
-3.697025	jmp jle	-0.5291756
-2.164114	jmp jmp	-1.392326
-4.387221	jmp jnb	-0.6744235
-4.609069	jmp jnp	-0.4178441
-3.370187	jmp jnz	-0.5222158
-3.532915	jmp jp	-0.679676
-3.343858	jmp jz	-0.5957854
-1.128727	jmp lea	-2.175425
-2.534436	jmp leave	-2.000154
-5.21113	jmp maxsd	-0.1570522
-5.688251	jmp maxss
-5.613241	jmp minsd
-5.688251	jmp minss
-0.3116153	jmp mov	-2.327281
-3.529888	jmp movapd	-0.3309007
-2.535962	jmp movaps	-1.313957
-4.432978	jmp movdqa	-0.7622226
-4.989281	jmp movdqu	-0.09889662
-4.484131	jmp movs	-1.096318
-2.765525	jmp movsd	-0.8074115
-3.357837	jmp movss	-0.05727005
-2.522413	jmp movsx	-0.7858641
-1.985131	jmp movsxd	-0.978577
-1.62899	jmp movzx	-1.531211
-3.989281	jmp mulsd	-0.3231382
-4.273277	jmp mulss	-0.7690118
-3.355812	jmp neg	-0.5545493
-2.493459	jmp nop	-1.647238
-3.675413	jmp not	-0.7573605
-2.259145	jmp or	-1.526649
-4.484131	jmp pcmpeqb	-1.144194
-5.688251	jmp pmovmskb
-2.326901	jmp pop	-1.871942
-5.613241	jmp prefetcht0	-0.1521425
-3.520933	jmp psrldq	-1.137695
-2.38657	jmp push	-0.7484469
-2.827913	jmp retn	-0.9426692
-4.734008	jmp ror	-0.3479724
-3.774437	jmp sar	-0.5208676
-4.646858	jmp sbb	-0.3810036
-5.688251	jmp setle
-5.613241	jmp setnl	-0.2333185
-5.688251	jmp setnle
-5.613241	jmp setnz
-4.30804	jmp setz	-1.014348
-3.050761	jmp shl	-0.05137002
-3.304435	jmp shr	-1.233311
-5.21113	jmp sqrtsd	0.2355371
-3.50073	jmp stos	-1.796907
-2.14555	jmp sub	-0.7812229
-3.830918	jmp subsd	-0.6506169
-4.290311	jmp subss	-0.4651532
-1.499997	jmp test	-0.7338138
-3.639033	jmp ucomisd	-0.06037247
-4.183101	jmp ucomiss	0.4726482
-4.646858	jmp unpcklpd	-0.4638661
-3.875337	jmp unpcklps	-0.482322
-3.758832	jmp xchg	-1.891329
-1.496576	jmp xor	-1.71818
-3.635172	jmp xorpd	-0.4534565
-4.241093	jmp xorps	0.01980472
-1.562462	jnb add	-0.5922946
-3.640253	jnb addsd	-0.05822262
-4.222378	jnb addss
-2.879956	jnb and	-0.9151374
-4.222378	jnb andpd
-4.222378	jnb andps
-4.222378	jnb bt
-2.25859	jnb call	-0.2615165
-3.180986	jnb cdqe	-0.06761256
-4.222378	jnb cld
-1.113813	jnb cmp	-0.7293105
-3.875635	jnb cvtsi2sd
-4.147369	jnb cvtsi2ss
-2.308564	jnb cvttsd2si	-0.5076355
-2.807405	jnb cvttss2si	-0.7105582
-4.222378	jnb cwde
-3.828818	jnb divsd	-0.01395482
-4.222378	jnb divss
-2.967106	jnb fstp	-0.9771005
-2.631314	jnb imul	-0.4801455
-4.222378	jnb inc
-1.698632	jnb jmp	-0.1575388
-3.745257	jnb jnp	0.03435276
-2.1693	jnb jp	-0.8782954
-1.271527	jnb lea	-0.7690654
-3.745257	jnb minsd	-0.4855545
-0.2777969	jnb mov	-1.597559
-3.108435	jnb movapd	-0.07478169
-4.222378	jnb movaps
-3.018258	jnb movdqa	-1.033976
-3.319288	jnb movdqu	-0.7881564
-3.319288	jnb movs	-0.9117016
-2.506375	jnb movsd	-0.3948923
-3.143197	jnb movss	-0.4543311
-2.277896	jnb movsx	-0.7688718
-2.235606	jnb movsxd	-0.5212346
-1.307506	jnb movzx	-1.064359
-3.875635	jnb mulsd	-0.08156821
-0.9601645	jnb nop	-1.943811
-3.180986	jnb not	-0.4899989
-2.77522	jnb or	-1.086764
-4.222378	jnb pcmpeqb
-2.807405	jnb pop	0.1765168
-2.55028	jnb retn	-0.2747591
-4.222378	jnb sfence
-2.514808	jnb shl	-0.7774107
-2.609594	jnb shr	-1.017363
-1.831443	jnb sub	-1.033975
-2.690899	jnb subsd	-1.023793
-3.828818	jnb subss	-0.4420547
-1.482806	jnb test	-0.3998953
-2.599129	jnb ucomisd	-0.2911194
-2.77522	jnb ucomiss	-0.7025613
-3.875635	jnb unpcklpd	-0.1261465
-3.143197	jnb unpcklps	0.1110623
-2.498102	jnb xchg	-0.9233946
-1.692179	jnb xor	-1.234663
-3.143197	jnb xorpd	-0.1608624
-0.4024876	jnp jmp	0.07427159
-1.681241	jnp maxss
-1.681241	jnp movapd
-0.6398485	jnp movsd	-1.017577
-1.681241	jnp movzx
-0.6398485	jnp nop	-0.002754569
-1.681241	jnp ucomisd
-1.681241	jnp ucomiss
-1.681241	jnp xchg
-1.351299	jns add	-0.6601996
-2.059966	jns and	-0.8582393
-1.213869	jns call	-0.710461
-1.102622	jns cmp	-0.9141232
-2.810965	jns cvtsi2sd	-0.8512284
-3.852358	jns cvtsi2ss
-2.454418	jns fadd	-0.3456756
-3.777349	jns imul	-0.2981853
-3.852358	jns inc
-0.9406678	jns jmp	-0.5329872
-1.326019	jns lea	-0.4325848
-0.3582034	jns mov	-1.467743
-3.458798	jns movsd	-0.06597808
-3.777349	jns movss
-2.810965	jns movsx	-0.2719207
-2.250298	jns movsxd	-0.3453384
-1.773177	jns movzx	-0.3960163
-3.852358	jns mulsd
-2.229109	jns neg	-0.4457303
-1.483142	jns nop	-0.9831276
-2.509935	jns not	-1.248496
-2.284156	jns or	-0.05495209
-2.136355	jns pop	-0.1445473
-3.505615	jns retn	0.0994498
-3.777349	jns shl
-2.573604	jns shr	-0.6060578
-1.943873	jns sub	-0.577251
-1.282984	jns test	-0.4990706
-2.472147	jns xchg	-0.4416984
-1.294851	jns xor	-0.6982088
-3.852358	jns xorps
-4.078853	jnz </f>	3.730462
-1.11011	jnz add	-1.422248
-4.130005	jnz addsd	-0.1308848
-5.510217	jnz addss
-2.250384	jnz and	-1.458002
-5.510217	jnz andps
-5.435207	jnz bsr
-5.510217	jnz bswap
-1.732572	jnz call	-0.8536103
-3.35488	jnz cdqe	-0.0760839
-1.05929	jnz cmp	-1.273454
-5.510217	jnz cmpltsd
-5.510217	jnz comiss
-5.510217	jnz cvtsd2ss
-3.596403	jnz cvtsi2sd	-0.06033361
-4.095243	jnz cvtsi2ss	-0.2149642
-5.033095	jnz cvtss2sd	-0.1496069
-4.431035	jnz cvttsd2si	-0.4444429
-5.163473	jnz cvttss2si	-0.4325718
-5.510217	jnz cwde
-4.047819	jnz dec	0.5384669
-5.163473	jnz divsd	-0.09548216
-5.435207	jnz divss	-0.2019642
-4.306097	jnz fld	-0.5238291
-5.033095	jnz fldz	-0.0834639
-4.431035	jnz fstp	-0.6651667
-5.435207	jnz fxch
-3.085335	jnz imul	-0.7771376
-3.565734	jnz inc	-1.605038
-1.142544	jnz jmp	-1.083615
-4.364089	jnz jnp	-0.2856917
-2.957548	jnz jp	-1.253272
-1.215001	jnz lea	-1.935993
-3.139149	jnz leave	-1.218946
-5.033095	jnz maxsd
-5.510217	jnz maxss
-5.510217	jnz minsd
-0.3418339	jnz mov	-2.553096
-3.794213	jnz movapd	-0.2600053
-4.306097	jnz movaps	-0.4551563
-4.209187	jnz movdqa	-0.5027303
-5.435207	jnz movdqu
-2.861856	jnz movsd	-0.4723153
-3.546429	jnz movss	-0.424673
-2.73062	jnz movsx	-0.5062404
-2.080142	jnz movsxd	-0.9072407
-1.33372	jnz movzx	-1.468683
-3.866764	jnz mulsd	-0.1786829
-4.811246	jnz mulss	-0.03730404
-3.828975	jnz neg	-0.7330842
-1.597357	jnz nop	-2.119946
-3.828975	jnz not	-0.3463016
-2.190694	jnz or	-1.539557
-4.306097	jnz pmovmskb	-1.10551
-2.072783	jnz pop	-1.189215
-5.163473	jnz push	-0.5520578
-4.279768	jnz pxor	-0.6889609
-2.413306	jnz retn	-0.8110222
-4.607127	jnz ror	-0.2610846
-3.897433	jnz sar	-0.5682852
-5.435207	jnz sbb	-0.31783
-3.016062	jnz shl	0.1043121
-3.245399	jnz shr	-0.5639914
-5.510217	jnz shrd
-5.510217	jnz sqrtsd
-5.510217	jnz stos
-2.118047	jnz sub	-0.4136946
-4.510217	jnz subsd	-0.2746964
-5.510217	jnz subss
-1.196223	jnz test	-1.429328
-4.033095	jnz ucomisd	-0.3106551
-4.279768	jnz ucomiss	-0.3867518
-5.510217	jnz unpcklpd
-4.254944	jnz unpcklps	-0.3345418
-2.53295	jnz xchg	-1.726654
-1.407269	jnz xor	-1.819839
-3.601732	jnz xorpd	-0.5487725
-4.209187	jnz xorps	0.007401586
-0.30103	jo shl
-2.046439	jp add	-0.321887
-2.799007	jp addsd	-0.5152802
-3.192567	jp addss
-2.113386	jp and	-0.4377005
-2.493598	jp call	-0.07562667
-1.636265	jp cmp	-0.72249
-2.493598	jp cvtsi2sd
-2.192567	jp cvtsi2ss	-0.1793771
-2.493598	jp cvtss2sd	-0.9167511
-2.715446	jp cvttsd2si
-3.192567	jp cvttss2si
-2.289477	jp fstp	-0.8836226
-2.113386	jp imul	-0.3293794
-2.493598	jp ja	-0.3965124
-1.192567	jp jb	-0.7678466
-1.937295	jp jbe	0.03553547
-1.988447	jp jnb	0.1120575
-0.9277496	jp jnz	-0.1552718
-0.5204696	jp jz	-0.2327298
-1.794627	jp lea	-0.3922057
-0.7792677	jp mov	-0.2041017
-1.52981	jp movapd	-0.2960393
-3.192567	jp movaps
-1.238325	jp movsd	-0.638819
-1.701206	jp movss	-0.4478329
-2.493598	jp movsxd	-0.1470553
-3.192567	jp movzx
-2.289477	jp mulsd	-0.04642133
-3.117558	jp mulss	-0.2820577
-2.078624	jp nop	-0.6213236
-3.192567	jp or
-3.192567	jp shl
-3.192567	jp sqrtsd
-3.192567	jp stos
-2.845824	jp sub	-0.1178537
-2.610443	jp subsd	-0.3480919
-2.016476	jp test	0.1335045
-1.624366	jp ucomisd	-0.6611257
-1.549115	jp ucomiss	-0.7348831
-2.113386	jp unpcklps	-1.063871
-2.845824	jp xchg	-0.1303891
-2.151175	jp xor	-0.03067115
-1.962119	jp xorpd	-0.4000552
-2.151175	jp xorps	-0.1820999
-1.467971	js add	-0.4133645
-3.283659	js addsd	-0.4287908
-4.362841	js addss
-2.536766	js and	-0.7299254
-3.45975	js bt	-0.3043708
-1.821261	js call	-0.4483572
-2.086379	js cdqe	-0.8173307
-0.9222462	js cmp	-0.7994469
-1.293543	js cvtsi2sd	-0.962341
-2.252251	js cvtsi2ss	-0.8181182
-4.362841	js cvttsd2si
-4.362841	js divsd
-4.287831	js divss
-3.96928	js fdivp	-0.4627394
-3.107568	js fucomip	-0.6394327
-2.806538	js imul	-0.1867989
-2.169716	js jmp	-0.546243
-1.109987	js lea	-1.045155
-0.3343099	js mov	-1.880813
-3.36284	js movapd	-0.3712034
-3.020418	js movsd	-0.3243067
-4.016097	js movss
-2.153326	js movsx	-0.6083445
-1.387869	js movsxd	-0.847064
-1.542639	js movzx	-1.07659
-4.287831	js mulsd
-3.885719	js mulss	-0.5661237
-4.016097	js neg	-0.4349149
-1.970144	js nop	-1.095039
-3.15872	js not	-0.5051092
-2.438561	js or	-0.5919862
-2.280055	js pop	-0.6158271
-2.844326	js retn	-0.6568979
-2.287293	js sar	-1.142976
-3.15872	js shl	-0.4529168
-4.016097	js shr	-0.02531625
-2.088683	js sub	-0.2320634
-4.362841	js subsd
-4.362841	js subss
-1.227072	js test	-0.87386
-4.016097	js ucomisd
-3.132391	js xchg	-0.1671404
-1.428847	js xor	-0.9548054
-3.321448	js xorpd	-0.05970886
-4.711328	jz </f>	4.098439
-5.75272	jz adc
-1.508567	jz add	-1.285467
-4.473967	jz addsd	-0.2697333
-5.053751	jz addss	-0.1688054
-2.581579	jz and	-1.370911
-5.275599	jz andpd	0.1248916
-4.75272	jz bsf	-0.2730012
-4.638777	jz bsr	0.01523995
-4.576629	jz bswap	-0.07562101
-4.337747	jz bt	1.158029
-1.295626	jz call	-0.9767454
-5.677711	jz cbw	-0.2661643
-2.929899	jz cdqe	-0.6505709
-0.803765	jz cmp	-1.635192
-5.75272	jz cvtsd2ss
-3.473967	jz cvtsi2sd	-0.5183969
-4.004532	jz cvtsi2ss	-0.5845421
-4.497448	jz cvtss2sd	-1.087839
-5.170596	jz cvttsd2si	-0.2821956
-5.275599	jz cvttss2si	-0.4325718
-4.522272	jz cwde	-0.1812991
-3.290323	jz dec	-0.4307235
-4.497448	jz divsd	-0.1618679
-4.84963	jz divss	-0.2217314
-4.84963	jz fchs	-0.69897
-4.196418	jz fld	-0.3680447
-5.053751	jz fldz	-0.1880363
-5.75272	jz fst
-4.430501	jz fstp	-0.7709907
-5.75272	jz hlt
-3.268421	jz imul	-0.5056829
-3.715294	jz inc	0.05400527
-2.591952	jz ja	-2.140654
-3.12638	jz jb	-1.730377
-2.865666	jz jbe	-0.9596019
-2.629522	jz jg	-1.803813
-3.688262	jz jge	-0.1828331
-3.278504	jz jl	-0.733189
-2.66423	jz jle	-0.9329288
-1.765591	jz jmp	-0.6716846
-3.085268	jz jnb	-0.6334165
-5.677711	jz jp
-5.677711	jz jz
-1.188196	jz lea	-2.000929
-4.576629	jz leave	2.360424
-3.327839	jz lock	0.02260625
-5.75272	jz maxsd
-0.3136674	jz mov	-2.502094
-3.628869	jz movapd	-0.6997073
-4.576629	jz movaps	-0.3119308
-5.677711	jz movdqa	-0.3110679
-5.677711	jz movdqu	-0.2693645
-4.522272	jz movs	-0.6040816
-2.895388	jz movsd	-0.8500457
-3.460464	jz movss	-0.3876671
-2.453649	jz movsx	-0.6496215
-1.94128	jz movsxd	-1.252728
-1.5881	jz movzx	-1.749855
-4.184519	jz mulsd	-0.3099897
-4.337747	jz mulss	-0.5933555
-3.818222	jz neg	-0.741584
-1.693422	jz nop	-2.191481
-4.109268	jz not	-0.2650343
-2.269847	jz or	-1.17632
-4.548601	jz pand	-1.070748
-5.75272	jz pcmpeqb
-2.460464	jz pop	-0.9129405
-5.053751	jz push	-0.5185382
-4.798478	jz pxor	-0.6734329
-2.873051	jz retn	-0.7013003
-5.405977	jz rol	-0.4676454
-4.208652	jz ror	-0.9803176
-4.080623	jz sar	-0.4654336
-5.405977	jz sbb	-0.5967246
-5.677711	jz setl	-0.2479976
-5.405977	jz setnl	-0.5173845
-4.290322	jz setnle	-0.7077101
-3.213645	jz shl	-0.3548491
-3.432574	jz shr	-0.5812335
-5.75272	jz sqrtsd
-5.75272	jz stmxcsr
-3.765949	jz stos	-0.4166879
-2.039398	jz sub	-0.9280474
-4.522272	jz subsd	-0.1262356
-5.677711	jz subss	-0.2199859
-1.289515	jz test	-1.37251
-3.798478	jz ucomisd	-0.5171555
-4.305562	jz ucomiss	-0.2318396
-5.053751	jz unpcklpd	0.113925
-4.354781	jz unpcklps	-0.1352023
-2.733604	jz xchg	-1.519823
-1.412931	jz xor	-1.835426
-3.642131	jz xorpd	-0.6277485
-4.321357	jz xorps	-0.01912218
-0.30103	lahf dec
-1.447158	ldmxcsr leave
-0.03218468	ldmxcsr retn	-1.201394
-5.699952	lea </f>
-5.624943	lea adc
-1.724566	lea add	-0.8162985
-4.222831	lea addsd	-0.6008446
-4.620771	lea addss	0.03578641
-2.284311	lea and	-1.321115
-4.745709	lea andpd	0.01244813
-5.353209	lea andps	-0.2829172
-4.222831	lea bswap	-0.7229366
-5.624943	lea bt	-0.2093284
-1.132067	lea call	-0.6913855
-2.725441	lea cdqe	-0.3161449
-3.84262	lea cmova	-0.8007172
-4.745709	lea cmovb	-0.149414
-3.848694	lea cmovbe	-0.782985
-3.867443	lea cmovg	-0.6256801
-4.35753	lea cmovge	-0.06854221
-4.252794	lea cmovl	-0.4668641
-3.83072	lea cmovle	-1.411835
-4.284979	lea cmovnb	-0.1864244
-3.572847	lea cmovns	-0.8617588
-2.861733	lea cmovnz	-0.3590297
-4.076703	lea cmovs	-0.05723482
-2.383353	lea cmovz	-0.9607755
-1.308823	lea cmp	-0.8263211
-3.381889	lea cmps	0.4554442
-5.699952	lea cmpxchg
-5.699952	lea cvtpd2ps
-4.222831	lea cvtps2pd	-0.6681955
-3.731469	lea cvtsi2sd	-0.3575046
-4.268589	lea cvtsi2ss	-0.1377757
-4.796862	lea cvtss2sd	-0.1993319
-4.35753	lea cvttsd2si	-0.24719
-5.699952	lea cvttss2si
-5.624943	lea cwde	-0.2243477
-4.699952	lea dec	-0.3247733
-3.576101	lea div	-0.6764952
-4.469503	lea divsd	-0.2456813
-5.117827	lea divss	0.01050708
-5.306392	lea fld	-0.2879834
-5.353209	lea fstp	-0.1740025
-4.469503	lea idiv	-0.1187309
-2.82143	lea imul	-0.4826115
-4.338224	lea inc	0.1292335
-3.381889	lea ja	-0.376698
-3.523861	lea jb	-0.2346044
-3.403287	lea jbe	-0.4580367
-3.456914	lea jg	-0.51895
-3.848694	lea jge	-0.3360945
-3.807858	lea jl	-0.05219442
-3.208591	lea jle	-0.3203751
-1.577933	lea jmp	-0.8377991
-3.662526	lea jnb	-0.2313945
-3.900612	lea jns	-0.6614882
-2.247246	lea jnz	-0.5029852
-3.654629	lea js	-0.423926
-2.100834	lea jz	-0.4610853
-0.7914403	lea lea	-0.670404
-3.617167	lea leave	0.872309
-5.699952	lea lfence
-5.624943	lea minsd
-0.3346345	lea mov	-1.186127
-3.861103	lea movapd	-0.3070235
-4.222831	lea movaps	-0.8288249
-3.813461	lea movdqa	-1.281985
-4.495832	lea movdqu	-1.145075
-5.624943	lea movhpd
-5.353209	lea movntdq	-0.119569
-5.699952	lea movq
-3.944077	lea movs	-0.4021555
-2.918915	lea movsd	-0.7305385
-3.498555	lea movss	-0.1166843
-2.665324	lea movsx	-0.6909604
-1.922235	lea movsxd	-0.7935381
-1.946293	lea movzx	-0.4584253
-4.377733	lea mul	0.1182241
-5.624943	lea mulpd	-0.2841358
-4.009756	lea mulsd	-0.04860479
-4.302012	lea mulss	-0.2867145
-3.520975	lea neg	-0.1298243
-2.221963	lea nop	-1.586958
-2.465435	lea not	-1.532051
-2.81971	lea or	-0.9331355
-4.523861	lea pcmpeqb	-1.139739
-2.415521	lea pop	0.08783841
-2.468738	lea push	-0.1426466
-2.823734	lea retn	-0.8634043
-5.699952	lea rol
-3.063464	lea ror	-0.4273022
-2.570585	lea sar	-0.3858538
-3.425794	lea sbb	-0.3071879
-4.194802	lea scas	-0.3769835
-5.624943	lea setb	-0.305942
-5.000982	lea setbe	-0.06487714
-5.222831	lea setl	-0.5746939
-5.000982	lea setle	-0.08690359
-4.469503	lea setnbe	-0.250798
-5.222831	lea setnl
-4.553824	lea setnle	-0.2017911
-3.802325	lea setnz	-0.2373582
-3.695631	lea setz	-0.6219453
-1.943544	lea shl	-0.8423486
-2.690501	lea shr	-0.510146
-3.613592	lea stos	-0.9990348
-1.975185	lea sub	-0.1927049
-4.620771	lea subsd	-0.2229588
-5.000982	lea subss	-0.3741106
-1.828496	lea test	-0.6259341
-4.338224	lea ucomisd	-0.2596474
-5.000982	lea ucomiss	-0.03450675
-5.624943	lea unpcklpd
-4.398922	lea unpcklps	-0.9296136
-3.2702	lea xchg	-1.099105
-1.085677	lea xor	-1.965164
-4.377733	lea xorpd	-0.002160579
-4.699952	lea xorps	-0.01710144
-4.245386	leave cmp
-4.320395	leave dec
-1.160828	leave jmp	-2.257072
-3.366153	leave mov	0.1105983
-4.320395	leave movzx
-4.320395	leave nop
-0.03158762	leave retn	-1.961859
-4.320395	leave setnz
-3.843274	leave setz	-0.1690761
-4.320395	leave shr
-4.320395	leave sub
-4.320395	leave test
-4.245386	leave xor
-0.4771213	lfence mov
-0.4771213	lfence sub
-2.424882	lock and
-0.3641838	lock cmpxchg	0.1596183
-2.424882	lock dec
-1.94776	lock inc
-2.349872	lock or
-0.2756625	lock sub	-2.148552
-1.94776	lock xadd	-0.6002508
-1.898696	maxsd add	-0.04856264
-1.815135	maxsd addsd
-2.217247	maxsd call	0.00431928
-1.815135	maxsd cmp
-2.217247	maxsd cmpltsd	-0.1261085
-1.945513	maxsd divsd
-1.945513	maxsd ja	-0.1298212
-2.292256	maxsd jb
-2.292256	maxsd jbe
-2.292256	maxsd jge
-1.898696	maxsd jmp	-0.05962752
-2.217247	maxsd jnz
-2.292256	maxsd jz
-2.292256	maxsd lea
-2.217247	maxsd maxsd
-1.945513	maxsd minsd	-0.01401456
-1.213075	maxsd mov	-0.2801168
-0.6390436	maxsd movapd	-0.2405225
-0.3891661	maxsd movsd	-0.2008945
-1.292256	maxsd mulsd	-0.1436807
-2.292256	maxsd subsd
-2.217247	maxsd test
-2.217247	maxsd ucomisd
-2.292256	maxsd unpcklps
-1.623249	maxss add
-1.623249	maxss cmp
-1.623249	maxss divss
-1.146128	maxss jmp	-0.1842999
-1.623249	maxss jz
-1.623249	maxss maxss
-1.54824	maxss minss
-1.146128	maxss mov	0.1051107
-0.4771213	maxss movaps	-0.1982321
-0.509306	maxss movss	-0.2357999
-1.623249	maxss shl
-1.623249	maxss ucomiss
-1.70757	minsd add
-1.837948	minsd addsd	-0.2818053
-2.109682	minsd call	-0.2793766
-2.184691	minsd divsd
-2.109682	minsd jmp
-1.70757	minsd jnz
-2.184691	minsd js
-0.9805714	minsd maxsd	-0.4992007
-1.485721	minsd minsd	-0.06122994
-2.109682	minsd mov
-0.5125936	minsd movapd	0.01743579
-0.6283889	minsd movsd	-0.2356453
-2.184691	minsd movsxd
-0.8422688	minsd mulsd	-0.9676203
-2.184691	minsd pop
-2.184691	minsd retn
-2.184691	minsd subsd
-2.184691	minsd ucomisd
-2.184691	minsd xor
-1.70757	minsd xorpd	-0.5475948
-1.372149	minss jmp
-1.447158	minss jz
-1.447158	minss maxss
-0.9700368	minss mov	-0.3124588
-1.100415	minss movaps	-0.1287792
-0.748188	minss movss	-0.4418011
-1.447158	minss movsxd
-1.100415	minss mulss	-0.6895551
-1.447158	minss test
-1.372149	minss ucomiss	-0.2673393
-1.100415	minss unpcklps	-0.3271175
-4.659475	mov </f>	3.124542
-6.708694	mov DATA
-4.744905	mov adc	-0.7043476
-1.483257	mov add	-0.7103121
-4.315996	mov addsd	-0.066257
-4.633146	mov addss	-0.4410934
-2.364871	mov and	-0.8076441
-5.152391	mov andpd	0.05567324
-5.754451	mov andps	-0.1430621
-5.805604	mov bsf	0.02384946
-6.315133	mov bsr	-0.2891429
-3.85866	mov bswap	-0.4803444
-4.183649	mov bt	0.439141
-0.7559478	mov call	-0.2688961
-6.315133	mov cbw	-0.4794131
-6.315133	mov cdq	0.1504768
-3.005488	mov cdqe	-0.7023338
-4.923364	mov cld	-0.06269586
-6.708694	mov clflush
-4.237401	mov cmova	-0.4642937
-4.39063	mov cmovb	-0.3051198
-4.003685	mov cmovbe	-0.5657343
-4.07725	mov cmovg	-0.147831
-4.246295	mov cmovge	-0.1877671
-4.343205	mov cmovl	-0.3883522
-3.831322	mov cmovle	-0.1002352
-4.083381	mov cmovnb	-0.3288473
-4.017612	mov cmovns	-0.2071797
-3.024027	mov cmovnz	-0.3119912
-4.132352	mov cmovs	-0.4602855
-3.021164	mov cmovz	-0.2985566
-1.703581	mov cmp	-0.6249423
-6.708694	mov cmpeqsd
-6.708694	mov cmplesd
-6.633684	mov cmpneqsd
-6.633684	mov cmpneqss
-6.009723	mov cmpnltsd	-0.2218488
-2.49483	mov cmps	-0.3577752
-6.708694	mov cmpxchg
-6.708694	mov comisd
-4.432231	mov cpuid	-0.7262317
-4.984417	mov cvtpd2ps	-0.6834253
-4.200838	mov cvtps2pd	-0.5837476
-6.315133	mov cvtsd2ss	0.1473061
-3.603865	mov cvtsi2sd	-0.1551471
-4.131201	mov cvtsi2ss	-0.1311165
-4.909353	mov cvtss2sd	-0.03155214
-4.135822	mov cvttsd2si	-0.5051326
-4.667301	mov cvttss2si	-0.3851292
-5.805604	mov cwd	0.1249387
-4.876184	mov cwde	-0.7036241
-3.198685	mov dec	-0.6701672
-3.709998	mov div	-0.4049163
-4.10772	mov divsd	-0.4451315
-4.700093	mov divss	-0.3192208
-6.231572	mov fchs	-0.1548237
-6.708694	mov fcmovne
-6.315133	mov fild	-0.5572168
-5.075225	mov fld	-0.4308231
-5.667301	mov fld1	-0.1457266
-4.984417	mov fldcw	-1.343088
-5.407663	mov fldz	-0.2751907
-6.633684	mov fst	-0.2262763
-5.164625	mov fstp	-0.6219407
-6.633684	mov fucomi	-0.03626922
-4.370237	mov idiv	-0.03801262
-2.774801	mov imul	-0.03711963
-5.754451	mov in	-0.0654844
-3.569129	mov inc	-0.521031
-6.315133	mov int	-0.1635232
-3.255681	mov ja	-0.498657
-3.675672	mov jb	-0.4406755
-3.215933	mov jbe	-0.6877183
-3.154932	mov jg	-0.4018018
-3.707392	mov jge	-0.2802546
-3.652169	mov jl	-0.4038345
-2.883917	mov jle	-0.4766271
-1.416202	mov jmp	-1.425389
-3.615272	mov jnb	-0.744908
-3.687091	mov jns	-0.558383
-2.15115	mov jnz	-0.5688221
-5.055481	mov jp	-1.364099
-3.15871	mov js	-0.4306579
-1.774356	mov jz	-0.7546177
-6.708694	mov ldmxcsr
-1.527771	mov lea	-0.5785186
-2.902717	mov leave	0.1120059
-6.708694	mov lfence
-5.504573	mov maxsd	-0.07804388
-6.315133	mov minsd	-0.1845244
-6.708694	mov minss
-0.3127677	mov mov	-0.7292776
-3.803437	mov movapd	-0.4374266
-4.297073	mov movaps	0.1282672
-6.009723	mov movd	-0.8537621
-4.779274	mov movdqa	-0.8321739
-5.246295	mov movdqu	-0.8191906
-5.805604	mov movhpd	-0.0005424917
-4.96833	mov movq	-0.03903842
-3.567244	mov movs	-0.2435448
-2.938799	mov movsd	-0.5181592
-3.395459	mov movss	-0.5283887
-3.042737	mov movsx	-0.4475827
-2.17834	mov movsxd	-0.5204816
-2.142763	mov movzx	-0.4763813
-3.698818	mov mul	-0.2444242
-6.633684	mov mulpd
-3.889808	mov mulsd	-0.41679
-4.507296	mov mulss	-0.4858944
-3.46072	mov neg	-0.5452085
-2.480473	mov nop	-1.869047
-3.303689	mov not	-0.3790383
-2.76126	mov or	-1.616265
-6.708694	mov orpd
-6.708694	mov orps
-5.152391	mov out	-0.6237192
-6.708694	mov pcmpeqb
-6.708694	mov pcmpistri
-2.17678	mov pop	-0.3043067
-1.973694	mov push	-0.3295491
-5.106633	mov pxor	-0.5463731
-6.633684	mov rdtsc
-2.617484	mov retn	-0.3324299
-4.116517	mov rol	-0.4153203
-3.094746	mov ror	-0.864387
-2.564026	mov sar	-0.6337876
-3.417991	mov sbb	-0.9224262
-3.543449	mov scas	0.09757519
-4.99269	mov setb	-0.8439052
-4.96833	mov setbe	-0.2953377
-5.140491	mov setl	-0.6201725
-4.857435	mov setle	0.06873876
-6.36195	mov setnb
-3.89378	mov setnbe	-0.9077449
-5.478244	mov setnl	-0.1883823
-4.29372	mov setnle	-0.06323099
-3.455598	mov setnz	-0.5524099
-6.231572	mov sets	-0.06661319
-3.320948	mov setz	-1.21775
-2.49776	mov shl	-0.430408
-5.667301	mov shld	-0.2372071
-2.548435	mov shr	-0.08935499
-6.231572	mov shrd	-0.08861718
-6.009723	mov sqrtsd	-0.4261393
-3.212456	mov stos	-0.4861411
-1.667692	mov sub	-0.7931099
-4.372233	mov subsd	-0.5426818
-5.055481	mov subss	-0.1486701
-6.633684	mov syscall
-1.41738	mov test	-0.5564504
-4.374239	mov ucomisd	-0.07082307
-5.036595	mov ucomiss	0.1803864
-5.140491	mov unpcklpd	-0.2016394
-4.556405	mov unpcklps	-0.2880585
-4.916302	mov xadd	0.3188769
-3.587133	mov xchg	-0.9575115
-1.24278	mov xor	-0.4378433
-4.127769	mov xorpd	-0.7356508
-4.816599	mov xorps	0.3311372
-1.793671	movapd add	-0.2178053
-2.477036	movapd addpd	0.1426675
-1.639299	movapd addsd	-0.09571713
-3.230364	movapd and
-3.360742	movapd andnpd	-0.1229742
-1.58038	movapd andpd	-0.3095639
-0.9171999	movapd call	-0.332985
-3.707485	movapd cdqe
-3.313925	movapd cmovg	-0.5504135
-3.230364	movapd cmovle	-0.1481097
-3.313925	movapd cmovs	-0.5493505
-3.707485	movapd cmovz
-2.151182	movapd cmp	0.03353494
-3.632476	movapd cmplesd	-0.1766818
-3.230364	movapd cmpneqsd	-0.07054712
-3.632476	movapd cmpnlesd
-2.531394	movapd cmpnltsd	-0.09691006
-2.561357	movapd cvtps2pd	-0.1193702
-3.707485	movapd cvtsd2ss
-1.901305	movapd cvtsi2sd	-0.01288867
-3.12536	movapd cvtsi2ss	-0.3784638
-3.632476	movapd cvtss2sd	-0.3123901
-2.503365	movapd cvttsd2si	-0.4557114
-3.707485	movapd div
-1.464447	movapd divsd	-0.4497433
-3.632476	movapd fld1
-3.707485	movapd idiv
-3.360742	movapd imul	0.06302048
-3.12536	movapd ja	-0.1496874
-3.008515	movapd jb	-0.3943483
-2.561357	movapd jbe	-0.2415238
-3.707485	movapd jg
-3.632476	movapd jge
-2.666092	movapd jle	-0.03809837
-1.373031	movapd jmp	-0.1249108
-2.477036	movapd jnb	-0.926468
-2.245087	movapd jnz	0.1633731
-2.406455	movapd jp	-0.8520463
-3.230364	movapd js	-0.1579496
-2.188971	movapd jz	-0.09158984
-1.944057	movapd lea	-0.2884664
-2.503365	movapd maxsd	-0.2691115
-3.008515	movapd minsd
-0.9832091	movapd mov	-0.4363291
-0.8312672	movapd movapd	-0.426949
-3.632476	movapd movaps	-0.3118867
-3.230364	movapd movhpd	-0.1725598
-0.715816	movapd movsd	-0.5702325
-2.345757	movapd movss	-0.2816215
-3.632476	movapd movsx	-0.150582
-2.628304	movapd movsxd	-0.1015458
-3.360742	movapd movzx	-0.1083858
-2.327274	movapd mulpd	-0.6409781
-1.223185	movapd mulsd	-0.524233
-3.632476	movapd mulss
-3.707485	movapd neg
-2.309545	movapd nop	-0.1617415
-2.531394	movapd orpd	-0.2670687
-2.707485	movapd pop	0.2651849
-2.327274	movapd push	0.2950841
-2.365062	movapd retn	-0.2241993
-3.707485	movapd sar
-3.632476	movapd setnbe
-3.313925	movapd shl	-0.08223645
-3.360742	movapd shr	-0.1302816
-2.707485	movapd sqrtsd	-0.2789425
-2.276121	movapd sub	-0.1306969
-1.290845	movapd subsd	-0.3473722
-2.127702	movapd test	0.429719
-1.694648	movapd ucomisd	0.06366855
-2.753242	movapd unpcklpd	0.3728019
-3.632476	movapd unpcklps	0.09999853
-3.008515	movapd xchg	-0.07852113
-1.991482	movapd xor	-0.6081305
-1.868636	movapd xorpd	-0.2129312
-4.12215	movaps DATA
-2.891701	movaps add	-0.03829915
-4.12215	movaps addsd
-2.630789	movaps addss	-0.5425335
-2.91803	movaps andps	-0.1441352
-1.549279	movaps call	-0.7628765
-2.459393	movaps cmp	-0.3350994
-4.047141	movaps cmpneqss
-4.047141	movaps cmpnltss	0.0247508
-4.047141	movaps cvtpd2ps
-3.540025	movaps cvtps2pd	-0.0598913
-2.843397	movaps cvtsi2ss	-0.03272906
-3.775407	movaps cvttsd2si	-0.587493
-4.12215	movaps cvttss2si
-2.498901	movaps divss	-0.2598523
-4.12215	movaps imul
-3.167908	movaps ja	-0.05100292
-4.047141	movaps jbe	-0.3164548
-3.72859	movaps jle	-0.2640626
-2.397874	movaps jmp	-0.1682447
-4.047141	movaps jnb	0.007582515
-4.12215	movaps jns
-3.72859	movaps jnz	-0.03729731
-2.02178	movaps jz	-1.164249
-1.264818	movaps lea	-1.172252
-3.775407	movaps maxss	-0.1180531
-1.325576	movaps mov	-0.5919095
-4.12215	movaps movapd
-0.09475993	movaps movaps	-0.7399215
-4.047141	movaps movq
-3.12215	movaps movsd	-0.098614
-1.854979	movaps movss	-0.4735682
-3.42318	movaps movsxd	0.1285416
-3.775407	movaps movzx	-0.5155456
-4.047141	movaps mulsd
-2.336821	movaps mulss	0.000497818
-3.167908	movaps nop	-0.05288129
-3.42318	movaps orps	-0.5764751
-4.047141	movaps pcmpeqb
-3.42318	movaps pop	0.02655533
-3.42318	movaps push	0.09196299
-4.047141	movaps retn
-3.645029	movaps shl
-4.047141	movaps sqrtss	-0.2262763
-3.12215	movaps sub	-0.4293159
-4.047141	movaps subsd	-0.3130189
-2.406147	movaps subss	-0.2578356
-2.976022	movaps test	-0.002334893
-2.779728	movaps ucomiss	-0.3236967
-4.047141	movaps unpcklpd	0.2595326
-2.976022	movaps unpcklps	-0.02916542
-2.397874	movaps xor	-0.7017063
-3.775407	movaps xorps	-0.2962967
-1.041393	movd cmp
